digraph Tree {
node [shape=box, style="filled, rounded", color="black", fontname=helvetica] ;
edge [fontname=helvetica] ;
0 [label="X[4] <= 4.5\ngini = 0.25\nsamples = 12097\nvalue = [247, 2057, 326, 16372]", fillcolor="#dd58e9"] ;
1 [label="X[5] <= 1.5\ngini = 0.31\nsamples = 4192\nvalue = [88, 1013, 112, 5366]", fillcolor="#e064eb"] ;
0 -> 1 [labeldistance=2.5, labelangle=45, headlabel="True"] ;
2 [label="X[3] <= 11.0\ngini = 0.51\nsamples = 544\nvalue = [13, 341, 12, 487]", fillcolor="#f4c7f8"] ;
1 -> 2 ;
3 [label="X[0] <= 1.5\ngini = 0.5\nsamples = 496\nvalue = [7, 303, 6, 453]", fillcolor="#f2bff7"] ;
2 -> 3 ;
4 [label="X[4] <= -0.5\ngini = 0.5\nsamples = 300\nvalue = [4, 278, 5, 191]", fillcolor="#c7f7c3"] ;
3 -> 4 ;
5 [label="X[1] <= 3.5\ngini = 0.49\nsamples = 103\nvalue = [3, 53, 3, 102]", fillcolor="#eda5f3"] ;
4 -> 5 ;
6 [label="X[0] <= -0.5\ngini = 0.49\nsamples = 102\nvalue = [3, 53, 3, 101]", fillcolor="#eda6f3"] ;
5 -> 6 ;
7 [label="gini = 0.0\nsamples = 18\nvalue = [0, 0, 0, 28]", fillcolor="#d739e5"] ;
6 -> 7 ;
8 [label="X[1] <= 1.5\ngini = 0.53\nsamples = 84\nvalue = [3, 53, 3, 73]", fillcolor="#f5cdf8"] ;
6 -> 8 ;
9 [label="X[3] <= 8.5\ngini = 0.55\nsamples = 69\nvalue = [3, 44, 3, 57]", fillcolor="#f7d6fa"] ;
8 -> 9 ;
10 [label="X[5] <= 0.5\ngini = 0.42\nsamples = 8\nvalue = [0, 7, 0, 3]", fillcolor="#96f08e"] ;
9 -> 10 ;
11 [label="X[6] <= 3.5\ngini = 0.44\nsamples = 7\nvalue = [0, 6, 0, 3]", fillcolor="#a3f29c"] ;
10 -> 11 ;
12 [label="X[6] <= 1.0\ngini = 0.49\nsamples = 6\nvalue = [0, 4, 0, 3]", fillcolor="#d1f8ce"] ;
11 -> 12 ;
13 [label="gini = 0.5\nsamples = 2\nvalue = [0, 1, 0, 1]", fillcolor="#ffffff"] ;
12 -> 13 ;
14 [label="X[3] <= 3.5\ngini = 0.48\nsamples = 4\nvalue = [0, 3, 0, 2]", fillcolor="#c2f6bd"] ;
12 -> 14 ;
15 [label="gini = 0.0\nsamples = 2\nvalue = [0, 0, 0, 2]", fillcolor="#d739e5"] ;
14 -> 15 ;
16 [label="gini = 0.0\nsamples = 2\nvalue = [0, 3, 0, 0]", fillcolor="#47e539"] ;
14 -> 16 ;
17 [label="gini = 0.0\nsamples = 1\nvalue = [0, 2, 0, 0]", fillcolor="#47e539"] ;
11 -> 17 ;
18 [label="gini = 0.0\nsamples = 1\nvalue = [0, 1, 0, 0]", fillcolor="#47e539"] ;
10 -> 18 ;
19 [label="X[2] <= 0.5\ngini = 0.54\nsamples = 61\nvalue = [3, 37, 3, 54]", fillcolor="#f4c7f8"] ;
9 -> 19 ;
20 [label="X[0] <= 0.5\ngini = 0.54\nsamples = 56\nvalue = [3, 33, 3, 52]", fillcolor="#f2bef6"] ;
19 -> 20 ;
21 [label="X[6] <= 1.0\ngini = 0.49\nsamples = 53\nvalue = [1, 33, 0, 52]", fillcolor="#f1b8f6"] ;
20 -> 21 ;
22 [label="X[5] <= -0.5\ngini = 0.38\nsamples = 7\nvalue = [0, 3, 0, 9]", fillcolor="#e47bee"] ;
21 -> 22 ;
23 [label="gini = 0.42\nsamples = 6\nvalue = [0, 3, 0, 7]", fillcolor="#e88ef0"] ;
22 -> 23 ;
24 [label="gini = 0.0\nsamples = 1\nvalue = [0, 0, 0, 2]", fillcolor="#d739e5"] ;
22 -> 24 ;
25 [label="X[5] <= 0.5\ngini = 0.5\nsamples = 46\nvalue = [1, 30, 0, 43]", fillcolor="#f3c4f7"] ;
21 -> 25 ;
26 [label="X[6] <= 5.5\ngini = 0.49\nsamples = 40\nvalue = [0, 29, 0, 36]", fillcolor="#f7d9fa"] ;
25 -> 26 ;
27 [label="X[3] <= 9.5\ngini = 0.5\nsamples = 39\nvalue = [0, 29, 0, 35]", fillcolor="#f8ddfb"] ;
26 -> 27 ;
28 [label="X[5] <= -0.5\ngini = 0.5\nsamples = 38\nvalue = [0, 29, 0, 34]", fillcolor="#f9e2fb"] ;
27 -> 28 ;
29 [label="gini = 0.5\nsamples = 7\nvalue = [0, 6, 0, 5]", fillcolor="#e0fbde"] ;
28 -> 29 ;
30 [label="X[6] <= 4.0\ngini = 0.49\nsamples = 31\nvalue = [0, 23, 0, 29]", fillcolor="#f7d6fa"] ;
28 -> 30 ;
31 [label="gini = 0.49\nsamples = 30\nvalue = [0, 21, 0, 29]", fillcolor="#f4c8f8"] ;
30 -> 31 ;
32 [label="gini = 0.0\nsamples = 1\nvalue = [0, 2, 0, 0]", fillcolor="#47e539"] ;
30 -> 32 ;
33 [label="gini = 0.0\nsamples = 1\nvalue = [0, 0, 0, 1]", fillcolor="#d739e5"] ;
27 -> 33 ;
34 [label="gini = 0.0\nsamples = 1\nvalue = [0, 0, 0, 1]", fillcolor="#d739e5"] ;
26 -> 34 ;
35 [label="gini = 0.37\nsamples = 6\nvalue = [1, 1, 0, 7]", fillcolor="#e16aec"] ;
25 -> 35 ;
36 [label="X[5] <= -0.5\ngini = 0.48\nsamples = 3\nvalue = [2, 0, 3, 0]", fillcolor="#bddef6"] ;
20 -> 36 ;
37 [label="X[6] <= 1.0\ngini = 0.5\nsamples = 2\nvalue = [2, 0, 2, 0]", fillcolor="#ffffff"] ;
36 -> 37 ;
38 [label="gini = 0.0\nsamples = 1\nvalue = [0, 0, 2, 0]", fillcolor="#399de5"] ;
37 -> 38 ;
39 [label="gini = 0.0\nsamples = 1\nvalue = [2, 0, 0, 0]", fillcolor="#e58139"] ;
37 -> 39 ;
40 [label="gini = 0.0\nsamples = 1\nvalue = [0, 0, 1, 0]", fillcolor="#399de5"] ;
36 -> 40 ;
41 [label="X[5] <= 0.5\ngini = 0.44\nsamples = 5\nvalue = [0, 4, 0, 2]", fillcolor="#a3f29c"] ;
19 -> 41 ;
42 [label="X[6] <= 1.0\ngini = 0.38\nsamples = 3\nvalue = [0, 3, 0, 1]", fillcolor="#84ee7b"] ;
41 -> 42 ;
43 [label="gini = 0.0\nsamples = 1\nvalue = [0, 0, 0, 1]", fillcolor="#d739e5"] ;
42 -> 43 ;
44 [label="gini = 0.0\nsamples = 2\nvalue = [0, 3, 0, 0]", fillcolor="#47e539"] ;
42 -> 44 ;
45 [label="X[6] <= 1.0\ngini = 0.5\nsamples = 2\nvalue = [0, 1, 0, 1]", fillcolor="#ffffff"] ;
41 -> 45 ;
46 [label="gini = 0.0\nsamples = 1\nvalue = [0, 0, 0, 1]", fillcolor="#d739e5"] ;
45 -> 46 ;
47 [label="gini = 0.0\nsamples = 1\nvalue = [0, 1, 0, 0]", fillcolor="#47e539"] ;
45 -> 47 ;
48 [label="X[3] <= 5.5\ngini = 0.46\nsamples = 15\nvalue = [0, 9, 0, 16]", fillcolor="#eea8f4"] ;
8 -> 48 ;
49 [label="gini = 0.0\nsamples = 3\nvalue = [0, 0, 0, 5]", fillcolor="#d739e5"] ;
48 -> 49 ;
50 [label="X[5] <= -0.5\ngini = 0.5\nsamples = 12\nvalue = [0, 9, 0, 11]", fillcolor="#f8dbfa"] ;
48 -> 50 ;
51 [label="X[6] <= 1.0\ngini = 0.44\nsamples = 4\nvalue = [0, 6, 0, 3]", fillcolor="#a3f29c"] ;
50 -> 51 ;
52 [label="gini = 0.0\nsamples = 1\nvalue = [0, 1, 0, 0]", fillcolor="#47e539"] ;
51 -> 52 ;
53 [label="X[3] <= 8.5\ngini = 0.47\nsamples = 3\nvalue = [0, 5, 0, 3]", fillcolor="#b5f5b0"] ;
51 -> 53 ;
54 [label="X[3] <= 7.5\ngini = 0.48\nsamples = 2\nvalue = [0, 2, 0, 3]", fillcolor="#f2bdf6"] ;
53 -> 54 ;
55 [label="gini = 0.0\nsamples = 1\nvalue = [0, 2, 0, 0]", fillcolor="#47e539"] ;
54 -> 55 ;
56 [label="gini = 0.0\nsamples = 1\nvalue = [0, 0, 0, 3]", fillcolor="#d739e5"] ;
54 -> 56 ;
57 [label="gini = 0.0\nsamples = 1\nvalue = [0, 3, 0, 0]", fillcolor="#47e539"] ;
53 -> 57 ;
58 [label="X[5] <= 0.5\ngini = 0.4\nsamples = 8\nvalue = [0, 3, 0, 8]", fillcolor="#e683ef"] ;
50 -> 58 ;
59 [label="X[3] <= 8.0\ngini = 0.38\nsamples = 6\nvalue = [0, 2, 0, 6]", fillcolor="#e47bee"] ;
58 -> 59 ;
60 [label="gini = 0.0\nsamples = 1\nvalue = [0, 1, 0, 0]", fillcolor="#47e539"] ;
59 -> 60 ;
61 [label="X[6] <= 5.0\ngini = 0.24\nsamples = 5\nvalue = [0, 1, 0, 6]", fillcolor="#de5ae9"] ;
59 -> 61 ;
62 [label="gini = 0.0\nsamples = 4\nvalue = [0, 0, 0, 6]", fillcolor="#d739e5"] ;
61 -> 62 ;
63 [label="gini = 0.0\nsamples = 1\nvalue = [0, 1, 0, 0]", fillcolor="#47e539"] ;
61 -> 63 ;
64 [label="X[3] <= 9.5\ngini = 0.44\nsamples = 2\nvalue = [0, 1, 0, 2]", fillcolor="#eb9cf2"] ;
58 -> 64 ;
65 [label="gini = 0.0\nsamples = 1\nvalue = [0, 0, 0, 2]", fillcolor="#d739e5"] ;
64 -> 65 ;
66 [label="gini = 0.0\nsamples = 1\nvalue = [0, 1, 0, 0]", fillcolor="#47e539"] ;
64 -> 66 ;
67 [label="gini = 0.0\nsamples = 1\nvalue = [0, 0, 0, 1]", fillcolor="#d739e5"] ;
5 -> 67 ;
68 [label="X[3] <= 8.5\ngini = 0.42\nsamples = 197\nvalue = [1, 225, 2, 89]", fillcolor="#91ef89"] ;
4 -> 68 ;
69 [label="X[6] <= 4.0\ngini = 0.32\nsamples = 28\nvalue = [0, 38, 2, 7]", fillcolor="#70eb66"] ;
68 -> 69 ;
70 [label="X[4] <= 0.5\ngini = 0.26\nsamples = 20\nvalue = [0, 27, 0, 5]", fillcolor="#69ea5e"] ;
69 -> 70 ;
71 [label="X[6] <= 1.0\ngini = 0.36\nsamples = 7\nvalue = [0, 10, 0, 3]", fillcolor="#7eed74"] ;
70 -> 71 ;
72 [label="gini = 0.0\nsamples = 1\nvalue = [0, 1, 0, 0]", fillcolor="#47e539"] ;
71 -> 72 ;
73 [label="gini = 0.38\nsamples = 6\nvalue = [0, 9, 0, 3]", fillcolor="#84ee7b"] ;
71 -> 73 ;
74 [label="X[3] <= 5.0\ngini = 0.19\nsamples = 13\nvalue = [0, 17, 0, 2]", fillcolor="#5de850"] ;
70 -> 74 ;
75 [label="X[4] <= 1.5\ngini = 0.13\nsamples = 10\nvalue = [0, 13, 0, 1]", fillcolor="#55e748"] ;
74 -> 75 ;
76 [label="X[2] <= 0.5\ngini = 0.28\nsamples = 5\nvalue = [0, 5, 0, 1]", fillcolor="#6cea61"] ;
75 -> 76 ;
77 [label="gini = 0.32\nsamples = 4\nvalue = [0, 4, 0, 1]", fillcolor="#75ec6a"] ;
76 -> 77 ;
78 [label="gini = 0.0\nsamples = 1\nvalue = [0, 1, 0, 0]", fillcolor="#47e539"] ;
76 -> 78 ;
79 [label="gini = 0.0\nsamples = 5\nvalue = [0, 8, 0, 0]", fillcolor="#47e539"] ;
75 -> 79 ;
80 [label="X[4] <= 1.5\ngini = 0.32\nsamples = 3\nvalue = [0, 4, 0, 1]", fillcolor="#75ec6a"] ;
74 -> 80 ;
81 [label="gini = 0.0\nsamples = 1\nvalue = [0, 2, 0, 0]", fillcolor="#47e539"] ;
80 -> 81 ;
82 [label="X[1] <= 1.5\ngini = 0.44\nsamples = 2\nvalue = [0, 2, 0, 1]", fillcolor="#a3f29c"] ;
80 -> 82 ;
83 [label="gini = 0.0\nsamples = 1\nvalue = [0, 0, 0, 1]", fillcolor="#d739e5"] ;
82 -> 83 ;
84 [label="gini = 0.0\nsamples = 1\nvalue = [0, 2, 0, 0]", fillcolor="#47e539"] ;
82 -> 84 ;
85 [label="X[4] <= 0.5\ngini = 0.43\nsamples = 8\nvalue = [0, 11, 2, 2]", fillcolor="#80ed76"] ;
69 -> 85 ;
86 [label="X[3] <= 3.5\ngini = 0.5\nsamples = 4\nvalue = [0, 2, 0, 2]", fillcolor="#ffffff"] ;
85 -> 86 ;
87 [label="gini = 0.0\nsamples = 2\nvalue = [0, 0, 0, 2]", fillcolor="#d739e5"] ;
86 -> 87 ;
88 [label="gini = 0.0\nsamples = 2\nvalue = [0, 2, 0, 0]", fillcolor="#47e539"] ;
86 -> 88 ;
89 [label="X[3] <= 1.5\ngini = 0.3\nsamples = 4\nvalue = [0, 9, 2, 0]", fillcolor="#70eb65"] ;
85 -> 89 ;
90 [label="gini = 0.0\nsamples = 1\nvalue = [0, 5, 0, 0]", fillcolor="#47e539"] ;
89 -> 90 ;
91 [label="X[6] <= 5.5\ngini = 0.44\nsamples = 3\nvalue = [0, 4, 2, 0]", fillcolor="#a3f29c"] ;
89 -> 91 ;
92 [label="gini = 0.0\nsamples = 1\nvalue = [0, 0, 2, 0]", fillcolor="#399de5"] ;
91 -> 92 ;
93 [label="gini = 0.0\nsamples = 2\nvalue = [0, 4, 0, 0]", fillcolor="#47e539"] ;
91 -> 93 ;
94 [label="X[3] <= 9.5\ngini = 0.43\nsamples = 169\nvalue = [1, 187, 0, 82]", fillcolor="#98f090"] ;
68 -> 94 ;
95 [label="X[4] <= 2.5\ngini = 0.42\nsamples = 157\nvalue = [1, 176, 0, 74]", fillcolor="#95f08d"] ;
94 -> 95 ;
96 [label="X[6] <= 5.5\ngini = 0.4\nsamples = 123\nvalue = [1, 143, 0, 52]", fillcolor="#8bef82"] ;
95 -> 96 ;
97 [label="X[2] <= 0.5\ngini = 0.39\nsamples = 117\nvalue = [1, 138, 0, 47]", fillcolor="#87ee7d"] ;
96 -> 97 ;
98 [label="X[5] <= -0.5\ngini = 0.37\nsamples = 109\nvalue = [1, 133, 0, 41]", fillcolor="#81ed77"] ;
97 -> 98 ;
99 [label="X[2] <= -0.5\ngini = 0.27\nsamples = 10\nvalue = [1, 11, 0, 1]", fillcolor="#66e95a"] ;
98 -> 99 ;
100 [label="gini = 0.0\nsamples = 1\nvalue = [1, 0, 0, 0]", fillcolor="#e58139"] ;
99 -> 100 ;
101 [label="X[4] <= 0.5\ngini = 0.15\nsamples = 9\nvalue = [0, 11, 0, 1]", fillcolor="#58e74b"] ;
99 -> 101 ;
102 [label="gini = 0.32\nsamples = 4\nvalue = [0, 4, 0, 1]", fillcolor="#75ec6a"] ;
101 -> 102 ;
103 [label="gini = 0.0\nsamples = 5\nvalue = [0, 7, 0, 0]", fillcolor="#47e539"] ;
101 -> 103 ;
104 [label="X[6] <= 3.5\ngini = 0.37\nsamples = 99\nvalue = [0, 122, 0, 40]", fillcolor="#83ee7a"] ;
98 -> 104 ;
105 [label="X[5] <= 0.5\ngini = 0.38\nsamples = 97\nvalue = [0, 120, 0, 40]", fillcolor="#84ee7b"] ;
104 -> 105 ;
106 [label="X[2] <= -0.5\ngini = 0.38\nsamples = 90\nvalue = [0, 111, 0, 39]", fillcolor="#88ee7f"] ;
105 -> 106 ;
107 [label="gini = 0.0\nsamples = 1\nvalue = [0, 3, 0, 0]", fillcolor="#47e539"] ;
106 -> 107 ;
108 [label="X[1] <= 1.5\ngini = 0.39\nsamples = 89\nvalue = [0, 108, 0, 39]", fillcolor="#89ee80"] ;
106 -> 108 ;
109 [label="X[4] <= 0.5\ngini = 0.39\nsamples = 88\nvalue = [0, 107, 0, 39]", fillcolor="#8aee81"] ;
108 -> 109 ;
110 [label="X[6] <= 1.0\ngini = 0.47\nsamples = 37\nvalue = [0, 42, 0, 25]", fillcolor="#b5f4af"] ;
109 -> 110 ;
111 [label="gini = 0.0\nsamples = 1\nvalue = [0, 2, 0, 0]", fillcolor="#47e539"] ;
110 -> 111 ;
112 [label="gini = 0.47\nsamples = 36\nvalue = [0, 40, 0, 25]", fillcolor="#baf5b5"] ;
110 -> 112 ;
113 [label="X[4] <= 1.5\ngini = 0.29\nsamples = 51\nvalue = [0, 65, 0, 14]", fillcolor="#6feb64"] ;
109 -> 113 ;
114 [label="gini = 0.28\nsamples = 9\nvalue = [0, 15, 0, 3]", fillcolor="#6cea61"] ;
113 -> 114 ;
115 [label="X[6] <= 1.0\ngini = 0.3\nsamples = 42\nvalue = [0, 50, 0, 11]", fillcolor="#6feb65"] ;
113 -> 115 ;
116 [label="gini = 0.0\nsamples = 1\nvalue = [0, 0, 0, 1]", fillcolor="#d739e5"] ;
115 -> 116 ;
117 [label="gini = 0.28\nsamples = 41\nvalue = [0, 50, 0, 10]", fillcolor="#6cea61"] ;
115 -> 117 ;
118 [label="gini = 0.0\nsamples = 1\nvalue = [0, 1, 0, 0]", fillcolor="#47e539"] ;
108 -> 118 ;
119 [label="X[1] <= 1.5\ngini = 0.18\nsamples = 7\nvalue = [0, 9, 0, 1]", fillcolor="#5be84f"] ;
105 -> 119 ;
120 [label="X[4] <= 0.5\ngini = 0.22\nsamples = 6\nvalue = [0, 7, 0, 1]", fillcolor="#61e955"] ;
119 -> 120 ;
121 [label="gini = 0.5\nsamples = 2\nvalue = [0, 1, 0, 1]", fillcolor="#ffffff"] ;
120 -> 121 ;
122 [label="gini = 0.0\nsamples = 4\nvalue = [0, 6, 0, 0]", fillcolor="#47e539"] ;
120 -> 122 ;
123 [label="gini = 0.0\nsamples = 1\nvalue = [0, 2, 0, 0]", fillcolor="#47e539"] ;
119 -> 123 ;
124 [label="gini = 0.0\nsamples = 2\nvalue = [0, 2, 0, 0]", fillcolor="#47e539"] ;
104 -> 124 ;
125 [label="X[5] <= 0.5\ngini = 0.5\nsamples = 8\nvalue = [0, 5, 0, 6]", fillcolor="#f8defb"] ;
97 -> 125 ;
126 [label="X[4] <= 1.0\ngini = 0.5\nsamples = 4\nvalue = [0, 2, 0, 2]", fillcolor="#ffffff"] ;
125 -> 126 ;
127 [label="gini = 0.0\nsamples = 1\nvalue = [0, 0, 0, 1]", fillcolor="#d739e5"] ;
126 -> 127 ;
128 [label="gini = 0.44\nsamples = 3\nvalue = [0, 2, 0, 1]", fillcolor="#a3f29c"] ;
126 -> 128 ;
129 [label="X[4] <= 1.0\ngini = 0.49\nsamples = 4\nvalue = [0, 3, 0, 4]", fillcolor="#f5cef8"] ;
125 -> 129 ;
130 [label="gini = 0.0\nsamples = 1\nvalue = [0, 0, 0, 2]", fillcolor="#d739e5"] ;
129 -> 130 ;
131 [label="gini = 0.48\nsamples = 3\nvalue = [0, 3, 0, 2]", fillcolor="#c2f6bd"] ;
129 -> 131 ;
132 [label="X[4] <= 0.5\ngini = 0.5\nsamples = 6\nvalue = [0, 5, 0, 5]", fillcolor="#ffffff"] ;
96 -> 132 ;
133 [label="gini = 0.32\nsamples = 3\nvalue = [0, 4, 0, 1]", fillcolor="#75ec6a"] ;
132 -> 133 ;
134 [label="X[4] <= 1.5\ngini = 0.32\nsamples = 3\nvalue = [0, 1, 0, 4]", fillcolor="#e16aec"] ;
132 -> 134 ;
135 [label="gini = 0.0\nsamples = 2\nvalue = [0, 0, 0, 4]", fillcolor="#d739e5"] ;
134 -> 135 ;
136 [label="gini = 0.0\nsamples = 1\nvalue = [0, 1, 0, 0]", fillcolor="#47e539"] ;
134 -> 136 ;
137 [label="X[5] <= 0.5\ngini = 0.48\nsamples = 34\nvalue = [0, 33, 0, 22]", fillcolor="#c2f6bd"] ;
95 -> 137 ;
138 [label="X[6] <= 4.5\ngini = 0.46\nsamples = 32\nvalue = [0, 33, 0, 18]", fillcolor="#abf3a5"] ;
137 -> 138 ;
139 [label="X[2] <= 0.5\ngini = 0.49\nsamples = 27\nvalue = [0, 23, 0, 18]", fillcolor="#d7f9d4"] ;
138 -> 139 ;
140 [label="X[4] <= 3.5\ngini = 0.5\nsamples = 25\nvalue = [0, 19, 0, 18]", fillcolor="#f5fef5"] ;
139 -> 140 ;
141 [label="gini = 0.45\nsamples = 16\nvalue = [0, 15, 0, 8]", fillcolor="#a9f3a3"] ;
140 -> 141 ;
142 [label="gini = 0.41\nsamples = 9\nvalue = [0, 4, 0, 10]", fillcolor="#e788ef"] ;
140 -> 142 ;
143 [label="gini = 0.0\nsamples = 2\nvalue = [0, 4, 0, 0]", fillcolor="#47e539"] ;
139 -> 143 ;
144 [label="gini = 0.0\nsamples = 5\nvalue = [0, 10, 0, 0]", fillcolor="#47e539"] ;
138 -> 144 ;
145 [label="gini = 0.0\nsamples = 2\nvalue = [0, 0, 0, 4]", fillcolor="#d739e5"] ;
137 -> 145 ;
146 [label="X[6] <= 4.5\ngini = 0.49\nsamples = 12\nvalue = [0, 11, 0, 8]", fillcolor="#cdf8c9"] ;
94 -> 146 ;
147 [label="X[4] <= 2.0\ngini = 0.49\nsamples = 4\nvalue = [0, 3, 0, 4]", fillcolor="#f5cef8"] ;
146 -> 147 ;
148 [label="X[4] <= 0.5\ngini = 0.48\nsamples = 3\nvalue = [0, 3, 0, 2]", fillcolor="#c2f6bd"] ;
147 -> 148 ;
149 [label="gini = 0.44\nsamples = 2\nvalue = [0, 1, 0, 2]", fillcolor="#eb9cf2"] ;
148 -> 149 ;
150 [label="gini = 0.0\nsamples = 1\nvalue = [0, 2, 0, 0]", fillcolor="#47e539"] ;
148 -> 150 ;
151 [label="gini = 0.0\nsamples = 1\nvalue = [0, 0, 0, 2]", fillcolor="#d739e5"] ;
147 -> 151 ;
152 [label="X[4] <= 2.5\ngini = 0.44\nsamples = 8\nvalue = [0, 8, 0, 4]", fillcolor="#a3f29c"] ;
146 -> 152 ;
153 [label="X[4] <= 1.0\ngini = 0.49\nsamples = 6\nvalue = [0, 5, 0, 4]", fillcolor="#dafad7"] ;
152 -> 153 ;
154 [label="X[6] <= 6.5\ngini = 0.44\nsamples = 3\nvalue = [0, 2, 0, 1]", fillcolor="#a3f29c"] ;
153 -> 154 ;
155 [label="gini = 0.5\nsamples = 2\nvalue = [0, 1, 0, 1]", fillcolor="#ffffff"] ;
154 -> 155 ;
156 [label="gini = 0.0\nsamples = 1\nvalue = [0, 1, 0, 0]", fillcolor="#47e539"] ;
154 -> 156 ;
157 [label="gini = 0.5\nsamples = 3\nvalue = [0, 3, 0, 3]", fillcolor="#ffffff"] ;
153 -> 157 ;
158 [label="gini = 0.0\nsamples = 2\nvalue = [0, 3, 0, 0]", fillcolor="#47e539"] ;
152 -> 158 ;
159 [label="X[3] <= 3.5\ngini = 0.18\nsamples = 196\nvalue = [3, 25, 1, 262]", fillcolor="#db4fe8"] ;
3 -> 159 ;
160 [label="X[3] <= 2.0\ngini = 0.34\nsamples = 24\nvalue = [3, 3, 1, 29]", fillcolor="#df63eb"] ;
159 -> 160 ;
161 [label="gini = 0.0\nsamples = 8\nvalue = [0, 0, 0, 13]", fillcolor="#d739e5"] ;
160 -> 161 ;
162 [label="X[5] <= -0.5\ngini = 0.48\nsamples = 16\nvalue = [3, 3, 1, 16]", fillcolor="#e57eee"] ;
160 -> 162 ;
163 [label="X[4] <= 0.5\ngini = 0.38\nsamples = 2\nvalue = [3, 0, 1, 0]", fillcolor="#eeab7b"] ;
162 -> 163 ;
164 [label="gini = 0.0\nsamples = 1\nvalue = [3, 0, 0, 0]", fillcolor="#e58139"] ;
163 -> 164 ;
165 [label="gini = 0.0\nsamples = 1\nvalue = [0, 0, 1, 0]", fillcolor="#399de5"] ;
163 -> 165 ;
166 [label="X[2] <= -0.5\ngini = 0.27\nsamples = 14\nvalue = [0, 3, 0, 16]", fillcolor="#de5eea"] ;
162 -> 166 ;
167 [label="gini = 0.0\nsamples = 1\nvalue = [0, 0, 0, 1]", fillcolor="#d739e5"] ;
166 -> 167 ;
168 [label="X[1] <= 1.5\ngini = 0.28\nsamples = 13\nvalue = [0, 3, 0, 15]", fillcolor="#df61ea"] ;
166 -> 168 ;
169 [label="X[5] <= 0.5\ngini = 0.12\nsamples = 11\nvalue = [0, 1, 0, 14]", fillcolor="#da47e7"] ;
168 -> 169 ;
170 [label="X[6] <= 4.0\ngini = 0.13\nsamples = 10\nvalue = [0, 1, 0, 13]", fillcolor="#da48e7"] ;
169 -> 170 ;
171 [label="X[4] <= 1.0\ngini = 0.17\nsamples = 8\nvalue = [0, 1, 0, 10]", fillcolor="#db4de8"] ;
170 -> 171 ;
172 [label="gini = 0.0\nsamples = 2\nvalue = [0, 0, 0, 3]", fillcolor="#d739e5"] ;
171 -> 172 ;
173 [label="X[4] <= 2.5\ngini = 0.22\nsamples = 6\nvalue = [0, 1, 0, 7]", fillcolor="#dd55e9"] ;
171 -> 173 ;
174 [label="gini = 0.32\nsamples = 4\nvalue = [0, 1, 0, 4]", fillcolor="#e16aec"] ;
173 -> 174 ;
175 [label="gini = 0.0\nsamples = 2\nvalue = [0, 0, 0, 3]", fillcolor="#d739e5"] ;
173 -> 175 ;
176 [label="gini = 0.0\nsamples = 2\nvalue = [0, 0, 0, 3]", fillcolor="#d739e5"] ;
170 -> 176 ;
177 [label="gini = 0.0\nsamples = 1\nvalue = [0, 0, 0, 1]", fillcolor="#d739e5"] ;
169 -> 177 ;
178 [label="X[4] <= 0.5\ngini = 0.44\nsamples = 2\nvalue = [0, 2, 0, 1]", fillcolor="#a3f29c"] ;
168 -> 178 ;
179 [label="gini = 0.0\nsamples = 1\nvalue = [0, 0, 0, 1]", fillcolor="#d739e5"] ;
178 -> 179 ;
180 [label="gini = 0.0\nsamples = 1\nvalue = [0, 2, 0, 0]", fillcolor="#47e539"] ;
178 -> 180 ;
181 [label="X[1] <= 1.0\ngini = 0.16\nsamples = 172\nvalue = [0, 22, 0, 233]", fillcolor="#db4ce7"] ;
159 -> 181 ;
182 [label="X[4] <= -0.5\ngini = 0.18\nsamples = 151\nvalue = [0, 22, 0, 196]", fillcolor="#db4fe8"] ;
181 -> 182 ;
183 [label="X[2] <= 0.5\ngini = 0.04\nsamples = 68\nvalue = [0, 2, 0, 97]", fillcolor="#d83de6"] ;
182 -> 183 ;
184 [label="X[3] <= 8.5\ngini = 0.02\nsamples = 63\nvalue = [0, 1, 0, 91]", fillcolor="#d73be5"] ;
183 -> 184 ;
185 [label="gini = 0.0\nsamples = 12\nvalue = [0, 0, 0, 16]", fillcolor="#d739e5"] ;
184 -> 185 ;
186 [label="X[2] <= -0.5\ngini = 0.03\nsamples = 51\nvalue = [0, 1, 0, 75]", fillcolor="#d83ce5"] ;
184 -> 186 ;
187 [label="gini = 0.0\nsamples = 1\nvalue = [0, 0, 0, 2]", fillcolor="#d739e5"] ;
186 -> 187 ;
188 [label="X[3] <= 9.5\ngini = 0.03\nsamples = 50\nvalue = [0, 1, 0, 73]", fillcolor="#d83ce5"] ;
186 -> 188 ;
189 [label="X[5] <= -0.5\ngini = 0.03\nsamples = 47\nvalue = [0, 1, 0, 70]", fillcolor="#d83ce5"] ;
188 -> 189 ;
190 [label="X[6] <= 1.0\ngini = 0.04\nsamples = 30\nvalue = [0, 1, 0, 43]", fillcolor="#d83ee6"] ;
189 -> 190 ;
191 [label="X[0] <= 2.5\ngini = 0.06\nsamples = 24\nvalue = [0, 1, 0, 31]", fillcolor="#d83fe6"] ;
190 -> 191 ;
192 [label="gini = 0.0\nsamples = 4\nvalue = [0, 0, 0, 4]", fillcolor="#d739e5"] ;
191 -> 192 ;
193 [label="X[0] <= 3.5\ngini = 0.07\nsamples = 20\nvalue = [0, 1, 0, 27]", fillcolor="#d840e6"] ;
191 -> 193 ;
194 [label="gini = 0.08\nsamples = 18\nvalue = [0, 1, 0, 24]", fillcolor="#d941e6"] ;
193 -> 194 ;
195 [label="gini = 0.0\nsamples = 2\nvalue = [0, 0, 0, 3]", fillcolor="#d739e5"] ;
193 -> 195 ;
196 [label="gini = 0.0\nsamples = 6\nvalue = [0, 0, 0, 12]", fillcolor="#d739e5"] ;
190 -> 196 ;
197 [label="gini = 0.0\nsamples = 17\nvalue = [0, 0, 0, 27]", fillcolor="#d739e5"] ;
189 -> 197 ;
198 [label="gini = 0.0\nsamples = 3\nvalue = [0, 0, 0, 3]", fillcolor="#d739e5"] ;
188 -> 198 ;
199 [label="X[5] <= -0.5\ngini = 0.24\nsamples = 5\nvalue = [0, 1, 0, 6]", fillcolor="#de5ae9"] ;
183 -> 199 ;
200 [label="X[0] <= 3.5\ngini = 0.38\nsamples = 4\nvalue = [0, 1, 0, 3]", fillcolor="#e47bee"] ;
199 -> 200 ;
201 [label="gini = 0.44\nsamples = 3\nvalue = [0, 1, 0, 2]", fillcolor="#eb9cf2"] ;
200 -> 201 ;
202 [label="gini = 0.0\nsamples = 1\nvalue = [0, 0, 0, 1]", fillcolor="#d739e5"] ;
200 -> 202 ;
203 [label="gini = 0.0\nsamples = 1\nvalue = [0, 0, 0, 3]", fillcolor="#d739e5"] ;
199 -> 203 ;
204 [label="X[4] <= 3.5\ngini = 0.28\nsamples = 83\nvalue = [0, 20, 0, 99]", fillcolor="#df61ea"] ;
182 -> 204 ;
205 [label="X[3] <= 4.5\ngini = 0.3\nsamples = 76\nvalue = [0, 20, 0, 89]", fillcolor="#e065eb"] ;
204 -> 205 ;
206 [label="X[6] <= 3.5\ngini = 0.44\nsamples = 3\nvalue = [0, 1, 0, 2]", fillcolor="#eb9cf2"] ;
205 -> 206 ;
207 [label="X[4] <= 1.5\ngini = 0.5\nsamples = 2\nvalue = [0, 1, 0, 1]", fillcolor="#ffffff"] ;
206 -> 207 ;
208 [label="gini = 0.0\nsamples = 1\nvalue = [0, 0, 0, 1]", fillcolor="#d739e5"] ;
207 -> 208 ;
209 [label="gini = 0.0\nsamples = 1\nvalue = [0, 1, 0, 0]", fillcolor="#47e539"] ;
207 -> 209 ;
210 [label="gini = 0.0\nsamples = 1\nvalue = [0, 0, 0, 1]", fillcolor="#d739e5"] ;
206 -> 210 ;
211 [label="X[6] <= 6.5\ngini = 0.29\nsamples = 73\nvalue = [0, 19, 0, 87]", fillcolor="#e064eb"] ;
205 -> 211 ;
212 [label="X[2] <= 0.5\ngini = 0.3\nsamples = 72\nvalue = [0, 19, 0, 86]", fillcolor="#e065eb"] ;
211 -> 212 ;
213 [label="X[3] <= 8.0\ngini = 0.31\nsamples = 67\nvalue = [0, 19, 0, 81]", fillcolor="#e067eb"] ;
212 -> 213 ;
214 [label="X[4] <= 2.5\ngini = 0.14\nsamples = 7\nvalue = [0, 1, 0, 12]", fillcolor="#da49e7"] ;
213 -> 214 ;
215 [label="gini = 0.0\nsamples = 6\nvalue = [0, 0, 0, 12]", fillcolor="#d739e5"] ;
214 -> 215 ;
216 [label="gini = 0.0\nsamples = 1\nvalue = [0, 1, 0, 0]", fillcolor="#47e539"] ;
214 -> 216 ;
217 [label="X[6] <= 4.5\ngini = 0.33\nsamples = 60\nvalue = [0, 18, 0, 69]", fillcolor="#e16dec"] ;
213 -> 217 ;
218 [label="X[4] <= 0.5\ngini = 0.32\nsamples = 58\nvalue = [0, 17, 0, 68]", fillcolor="#e16aec"] ;
217 -> 218 ;
219 [label="X[5] <= -0.5\ngini = 0.24\nsamples = 22\nvalue = [0, 4, 0, 25]", fillcolor="#dd59e9"] ;
218 -> 219 ;
220 [label="gini = 0.0\nsamples = 3\nvalue = [0, 0, 0, 5]", fillcolor="#d739e5"] ;
219 -> 220 ;
221 [label="X[5] <= 0.5\ngini = 0.28\nsamples = 19\nvalue = [0, 4, 0, 20]", fillcolor="#df61ea"] ;
219 -> 221 ;
222 [label="gini = 0.29\nsamples = 18\nvalue = [0, 4, 0, 19]", fillcolor="#df63ea"] ;
221 -> 222 ;
223 [label="gini = 0.0\nsamples = 1\nvalue = [0, 0, 0, 1]", fillcolor="#d739e5"] ;
221 -> 223 ;
224 [label="X[3] <= 9.5\ngini = 0.36\nsamples = 36\nvalue = [0, 13, 0, 43]", fillcolor="#e375ed"] ;
218 -> 224 ;
225 [label="X[4] <= 2.5\ngini = 0.37\nsamples = 34\nvalue = [0, 13, 0, 40]", fillcolor="#e479ed"] ;
224 -> 225 ;
226 [label="X[6] <= 1.0\ngini = 0.38\nsamples = 27\nvalue = [0, 11, 0, 32]", fillcolor="#e57dee"] ;
225 -> 226 ;
227 [label="gini = 0.48\nsamples = 3\nvalue = [0, 2, 0, 3]", fillcolor="#f2bdf6"] ;
226 -> 227 ;
228 [label="X[5] <= 0.5\ngini = 0.36\nsamples = 24\nvalue = [0, 9, 0, 29]", fillcolor="#e376ed"] ;
226 -> 228 ;
229 [label="X[4] <= 1.5\ngini = 0.38\nsamples = 22\nvalue = [0, 9, 0, 27]", fillcolor="#e47bee"] ;
228 -> 229 ;
230 [label="gini = 0.5\nsamples = 2\nvalue = [0, 1, 0, 1]", fillcolor="#ffffff"] ;
229 -> 230 ;
231 [label="X[5] <= -0.5\ngini = 0.36\nsamples = 20\nvalue = [0, 8, 0, 26]", fillcolor="#e376ed"] ;
229 -> 231 ;
232 [label="gini = 0.0\nsamples = 1\nvalue = [0, 0, 0, 1]", fillcolor="#d739e5"] ;
231 -> 232 ;
233 [label="gini = 0.37\nsamples = 19\nvalue = [0, 8, 0, 25]", fillcolor="#e478ed"] ;
231 -> 233 ;
234 [label="gini = 0.0\nsamples = 2\nvalue = [0, 0, 0, 2]", fillcolor="#d739e5"] ;
228 -> 234 ;
235 [label="X[6] <= 1.0\ngini = 0.32\nsamples = 7\nvalue = [0, 2, 0, 8]", fillcolor="#e16aec"] ;
225 -> 235 ;
236 [label="gini = 0.0\nsamples = 2\nvalue = [0, 0, 0, 2]", fillcolor="#d739e5"] ;
235 -> 236 ;
237 [label="X[5] <= -0.5\ngini = 0.38\nsamples = 5\nvalue = [0, 2, 0, 6]", fillcolor="#e47bee"] ;
235 -> 237 ;
238 [label="gini = 0.0\nsamples = 2\nvalue = [0, 0, 0, 5]", fillcolor="#d739e5"] ;
237 -> 238 ;
239 [label="gini = 0.44\nsamples = 3\nvalue = [0, 2, 0, 1]", fillcolor="#a3f29c"] ;
237 -> 239 ;
240 [label="gini = 0.0\nsamples = 2\nvalue = [0, 0, 0, 3]", fillcolor="#d739e5"] ;
224 -> 240 ;
241 [label="X[5] <= -0.5\ngini = 0.5\nsamples = 2\nvalue = [0, 1, 0, 1]", fillcolor="#ffffff"] ;
217 -> 241 ;
242 [label="gini = 0.0\nsamples = 1\nvalue = [0, 0, 0, 1]", fillcolor="#d739e5"] ;
241 -> 242 ;
243 [label="gini = 0.0\nsamples = 1\nvalue = [0, 1, 0, 0]", fillcolor="#47e539"] ;
241 -> 243 ;
244 [label="gini = 0.0\nsamples = 5\nvalue = [0, 0, 0, 5]", fillcolor="#d739e5"] ;
212 -> 244 ;
245 [label="gini = 0.0\nsamples = 1\nvalue = [0, 0, 0, 1]", fillcolor="#d739e5"] ;
211 -> 245 ;
246 [label="gini = 0.0\nsamples = 7\nvalue = [0, 0, 0, 10]", fillcolor="#d739e5"] ;
204 -> 246 ;
247 [label="gini = 0.0\nsamples = 21\nvalue = [0, 0, 0, 37]", fillcolor="#d739e5"] ;
181 -> 247 ;
248 [label="X[4] <= 3.5\ngini = 0.62\nsamples = 48\nvalue = [6, 38, 6, 34]", fillcolor="#f0fdef"] ;
2 -> 248 ;
249 [label="X[0] <= 1.5\ngini = 0.59\nsamples = 46\nvalue = [6, 36, 2, 34]", fillcolor="#f7fef6"] ;
248 -> 249 ;
250 [label="X[5] <= 0.5\ngini = 0.55\nsamples = 32\nvalue = [6, 33, 2, 13]", fillcolor="#a5f29e"] ;
249 -> 250 ;
251 [label="X[0] <= 0.5\ngini = 0.51\nsamples = 28\nvalue = [2, 30, 2, 13]", fillcolor="#a3f29c"] ;
250 -> 251 ;
252 [label="X[6] <= 3.5\ngini = 0.42\nsamples = 25\nvalue = [0, 30, 0, 13]", fillcolor="#97f08f"] ;
251 -> 252 ;
253 [label="X[4] <= -0.5\ngini = 0.47\nsamples = 22\nvalue = [0, 22, 0, 13]", fillcolor="#b4f4ae"] ;
252 -> 253 ;
254 [label="X[6] <= 1.0\ngini = 0.5\nsamples = 15\nvalue = [0, 12, 0, 13]", fillcolor="#fcf0fd"] ;
253 -> 254 ;
255 [label="X[2] <= -0.5\ngini = 0.4\nsamples = 8\nvalue = [0, 8, 0, 3]", fillcolor="#8cef83"] ;
254 -> 255 ;
256 [label="gini = 0.0\nsamples = 2\nvalue = [0, 3, 0, 0]", fillcolor="#47e539"] ;
255 -> 256 ;
257 [label="gini = 0.47\nsamples = 6\nvalue = [0, 5, 0, 3]", fillcolor="#b5f5b0"] ;
255 -> 257 ;
258 [label="X[5] <= -0.5\ngini = 0.41\nsamples = 7\nvalue = [0, 4, 0, 10]", fillcolor="#e788ef"] ;
254 -> 258 ;
259 [label="X[1] <= 1.5\ngini = 0.46\nsamples = 6\nvalue = [0, 4, 0, 7]", fillcolor="#eeaaf4"] ;
258 -> 259 ;
260 [label="X[2] <= -0.5\ngini = 0.28\nsamples = 4\nvalue = [0, 1, 0, 5]", fillcolor="#df61ea"] ;
259 -> 260 ;
261 [label="gini = 0.0\nsamples = 1\nvalue = [0, 1, 0, 0]", fillcolor="#47e539"] ;
260 -> 261 ;
262 [label="gini = 0.0\nsamples = 3\nvalue = [0, 0, 0, 5]", fillcolor="#d739e5"] ;
260 -> 262 ;
263 [label="X[2] <= -0.5\ngini = 0.48\nsamples = 2\nvalue = [0, 3, 0, 2]", fillcolor="#c2f6bd"] ;
259 -> 263 ;
264 [label="gini = 0.0\nsamples = 1\nvalue = [0, 0, 0, 2]", fillcolor="#d739e5"] ;
263 -> 264 ;
265 [label="gini = 0.0\nsamples = 1\nvalue = [0, 3, 0, 0]", fillcolor="#47e539"] ;
263 -> 265 ;
266 [label="gini = 0.0\nsamples = 1\nvalue = [0, 0, 0, 3]", fillcolor="#d739e5"] ;
258 -> 266 ;
267 [label="gini = 0.0\nsamples = 7\nvalue = [0, 10, 0, 0]", fillcolor="#47e539"] ;
253 -> 267 ;
268 [label="gini = 0.0\nsamples = 3\nvalue = [0, 8, 0, 0]", fillcolor="#47e539"] ;
252 -> 268 ;
269 [label="X[6] <= 4.5\ngini = 0.5\nsamples = 3\nvalue = [2, 0, 2, 0]", fillcolor="#ffffff"] ;
251 -> 269 ;
270 [label="gini = 0.0\nsamples = 1\nvalue = [0, 0, 1, 0]", fillcolor="#399de5"] ;
269 -> 270 ;
271 [label="X[5] <= -0.5\ngini = 0.44\nsamples = 2\nvalue = [2, 0, 1, 0]", fillcolor="#f2c09c"] ;
269 -> 271 ;
272 [label="gini = 0.0\nsamples = 1\nvalue = [2, 0, 0, 0]", fillcolor="#e58139"] ;
271 -> 272 ;
273 [label="gini = 0.0\nsamples = 1\nvalue = [0, 0, 1, 0]", fillcolor="#399de5"] ;
271 -> 273 ;
274 [label="X[6] <= 6.5\ngini = 0.49\nsamples = 4\nvalue = [4, 3, 0, 0]", fillcolor="#f8e0ce"] ;
250 -> 274 ;
275 [label="X[4] <= 1.0\ngini = 0.38\nsamples = 3\nvalue = [1, 3, 0, 0]", fillcolor="#84ee7b"] ;
274 -> 275 ;
276 [label="gini = 0.0\nsamples = 1\nvalue = [0, 1, 0, 0]", fillcolor="#47e539"] ;
275 -> 276 ;
277 [label="X[0] <= 0.5\ngini = 0.44\nsamples = 2\nvalue = [1, 2, 0, 0]", fillcolor="#a3f29c"] ;
275 -> 277 ;
278 [label="gini = 0.0\nsamples = 1\nvalue = [0, 2, 0, 0]", fillcolor="#47e539"] ;
277 -> 278 ;
279 [label="gini = 0.0\nsamples = 1\nvalue = [1, 0, 0, 0]", fillcolor="#e58139"] ;
277 -> 279 ;
280 [label="gini = 0.0\nsamples = 1\nvalue = [3, 0, 0, 0]", fillcolor="#e58139"] ;
274 -> 280 ;
281 [label="X[5] <= 0.5\ngini = 0.22\nsamples = 14\nvalue = [0, 3, 0, 21]", fillcolor="#dd55e9"] ;
249 -> 281 ;
282 [label="X[4] <= 1.0\ngini = 0.12\nsamples = 10\nvalue = [0, 1, 0, 15]", fillcolor="#da46e7"] ;
281 -> 282 ;
283 [label="X[5] <= -0.5\ngini = 0.24\nsamples = 5\nvalue = [0, 1, 0, 6]", fillcolor="#de5ae9"] ;
282 -> 283 ;
284 [label="gini = 0.0\nsamples = 2\nvalue = [0, 0, 0, 3]", fillcolor="#d739e5"] ;
283 -> 284 ;
285 [label="X[6] <= 7.0\ngini = 0.38\nsamples = 3\nvalue = [0, 1, 0, 3]", fillcolor="#e47bee"] ;
283 -> 285 ;
286 [label="X[6] <= 4.5\ngini = 0.5\nsamples = 2\nvalue = [0, 1, 0, 1]", fillcolor="#ffffff"] ;
285 -> 286 ;
287 [label="gini = 0.0\nsamples = 1\nvalue = [0, 0, 0, 1]", fillcolor="#d739e5"] ;
286 -> 287 ;
288 [label="gini = 0.0\nsamples = 1\nvalue = [0, 1, 0, 0]", fillcolor="#47e539"] ;
286 -> 288 ;
289 [label="gini = 0.0\nsamples = 1\nvalue = [0, 0, 0, 2]", fillcolor="#d739e5"] ;
285 -> 289 ;
290 [label="gini = 0.0\nsamples = 5\nvalue = [0, 0, 0, 9]", fillcolor="#d739e5"] ;
282 -> 290 ;
291 [label="X[6] <= 5.0\ngini = 0.38\nsamples = 4\nvalue = [0, 2, 0, 6]", fillcolor="#e47bee"] ;
281 -> 291 ;
292 [label="X[4] <= 1.0\ngini = 0.44\nsamples = 2\nvalue = [0, 2, 0, 4]", fillcolor="#eb9cf2"] ;
291 -> 292 ;
293 [label="gini = 0.0\nsamples = 1\nvalue = [0, 2, 0, 0]", fillcolor="#47e539"] ;
292 -> 293 ;
294 [label="gini = 0.0\nsamples = 1\nvalue = [0, 0, 0, 4]", fillcolor="#d739e5"] ;
292 -> 294 ;
295 [label="gini = 0.0\nsamples = 2\nvalue = [0, 0, 0, 2]", fillcolor="#d739e5"] ;
291 -> 295 ;
296 [label="X[6] <= 1.5\ngini = 0.44\nsamples = 2\nvalue = [0, 2, 4, 0]", fillcolor="#9ccef2"] ;
248 -> 296 ;
297 [label="gini = 0.0\nsamples = 1\nvalue = [0, 2, 0, 0]", fillcolor="#47e539"] ;
296 -> 297 ;
298 [label="gini = 0.0\nsamples = 1\nvalue = [0, 0, 4, 0]", fillcolor="#399de5"] ;
296 -> 298 ;
299 [label="X[2] <= 0.5\ngini = 0.26\nsamples = 3648\nvalue = [75, 672, 100, 4879]", fillcolor="#de5ae9"] ;
1 -> 299 ;
300 [label="X[4] <= -0.5\ngini = 0.26\nsamples = 3115\nvalue = [75, 561, 97, 4187]", fillcolor="#de5ae9"] ;
299 -> 300 ;
301 [label="X[2] <= -0.5\ngini = 0.14\nsamples = 1178\nvalue = [14, 99, 20, 1716]", fillcolor="#da48e7"] ;
300 -> 301 ;
302 [label="gini = 0.0\nsamples = 3\nvalue = [0, 0, 0, 3]", fillcolor="#d739e5"] ;
301 -> 302 ;
303 [label="X[6] <= 3.5\ngini = 0.14\nsamples = 1175\nvalue = [14, 99, 20, 1713]", fillcolor="#da48e7"] ;
301 -> 303 ;
304 [label="X[3] <= 11.5\ngini = 0.12\nsamples = 1084\nvalue = [13, 80, 15, 1594]", fillcolor="#da46e7"] ;
303 -> 304 ;
305 [label="X[0] <= 1.5\ngini = 0.12\nsamples = 1080\nvalue = [13, 77, 15, 1588]", fillcolor="#da46e7"] ;
304 -> 305 ;
306 [label="X[6] <= 1.0\ngini = 0.44\nsamples = 180\nvalue = [1, 61, 13, 183]", fillcolor="#e684ef"] ;
305 -> 306 ;
307 [label="X[3] <= 8.5\ngini = 0.14\nsamples = 45\nvalue = [1, 2, 2, 65]", fillcolor="#da48e7"] ;
306 -> 307 ;
308 [label="X[3] <= 7.5\ngini = 0.21\nsamples = 10\nvalue = [1, 1, 0, 15]", fillcolor="#dc52e8"] ;
307 -> 308 ;
309 [label="X[0] <= 0.5\ngini = 0.12\nsamples = 9\nvalue = [1, 0, 0, 15]", fillcolor="#da46e7"] ;
308 -> 309 ;
310 [label="gini = 0.0\nsamples = 8\nvalue = [0, 0, 0, 15]", fillcolor="#d739e5"] ;
309 -> 310 ;
311 [label="gini = 0.0\nsamples = 1\nvalue = [1, 0, 0, 0]", fillcolor="#e58139"] ;
309 -> 311 ;
312 [label="gini = 0.0\nsamples = 1\nvalue = [0, 1, 0, 0]", fillcolor="#47e539"] ;
308 -> 312 ;
313 [label="X[1] <= 1.0\ngini = 0.11\nsamples = 35\nvalue = [0, 1, 2, 50]", fillcolor="#d945e7"] ;
307 -> 313 ;
314 [label="X[0] <= -0.5\ngini = 0.04\nsamples = 34\nvalue = [0, 1, 0, 50]", fillcolor="#d83de6"] ;
313 -> 314 ;
315 [label="gini = 0.0\nsamples = 10\nvalue = [0, 0, 0, 14]", fillcolor="#d739e5"] ;
314 -> 315 ;
316 [label="X[3] <= 10.0\ngini = 0.05\nsamples = 24\nvalue = [0, 1, 0, 36]", fillcolor="#d83ee6"] ;
314 -> 316 ;
317 [label="gini = 0.05\nsamples = 23\nvalue = [0, 1, 0, 35]", fillcolor="#d83fe6"] ;
316 -> 317 ;
318 [label="gini = 0.0\nsamples = 1\nvalue = [0, 0, 0, 1]", fillcolor="#d739e5"] ;
316 -> 318 ;
319 [label="gini = 0.0\nsamples = 1\nvalue = [0, 0, 2, 0]", fillcolor="#399de5"] ;
313 -> 319 ;
320 [label="X[1] <= 3.5\ngini = 0.5\nsamples = 135\nvalue = [0, 59, 11, 118]", fillcolor="#eda4f3"] ;
306 -> 320 ;
321 [label="X[0] <= 0.5\ngini = 0.51\nsamples = 134\nvalue = [0, 59, 11, 117]", fillcolor="#eda5f3"] ;
320 -> 321 ;
322 [label="X[1] <= 2.5\ngini = 0.45\nsamples = 128\nvalue = [0, 59, 1, 117]", fillcolor="#eb9ef2"] ;
321 -> 322 ;
323 [label="X[3] <= 6.5\ngini = 0.45\nsamples = 122\nvalue = [0, 56, 1, 112]", fillcolor="#eb9df2"] ;
322 -> 323 ;
324 [label="X[3] <= 1.5\ngini = 0.1\nsamples = 11\nvalue = [0, 1, 0, 17]", fillcolor="#d945e7"] ;
323 -> 324 ;
325 [label="gini = 0.38\nsamples = 2\nvalue = [0, 1, 0, 3]", fillcolor="#e47bee"] ;
324 -> 325 ;
326 [label="gini = 0.0\nsamples = 9\nvalue = [0, 0, 0, 14]", fillcolor="#d739e5"] ;
324 -> 326 ;
327 [label="X[1] <= 1.0\ngini = 0.47\nsamples = 111\nvalue = [0, 55, 1, 95]", fillcolor="#eeacf4"] ;
323 -> 327 ;
328 [label="X[3] <= 9.5\ngini = 0.47\nsamples = 110\nvalue = [0, 55, 1, 94]", fillcolor="#efaef4"] ;
327 -> 328 ;
329 [label="X[3] <= 8.0\ngini = 0.48\nsamples = 107\nvalue = [0, 55, 1, 91]", fillcolor="#efb2f5"] ;
328 -> 329 ;
330 [label="gini = 0.54\nsamples = 11\nvalue = [0, 5, 1, 8]", fillcolor="#f2bdf6"] ;
329 -> 330 ;
331 [label="gini = 0.47\nsamples = 96\nvalue = [0, 50, 0, 83]", fillcolor="#efb0f5"] ;
329 -> 331 ;
332 [label="gini = 0.0\nsamples = 3\nvalue = [0, 0, 0, 3]", fillcolor="#d739e5"] ;
328 -> 332 ;
333 [label="gini = 0.0\nsamples = 1\nvalue = [0, 0, 0, 1]", fillcolor="#d739e5"] ;
327 -> 333 ;
334 [label="X[3] <= 7.5\ngini = 0.47\nsamples = 6\nvalue = [0, 3, 0, 5]", fillcolor="#efb0f5"] ;
322 -> 334 ;
335 [label="gini = 0.5\nsamples = 2\nvalue = [0, 1, 0, 1]", fillcolor="#ffffff"] ;
334 -> 335 ;
336 [label="X[3] <= 8.5\ngini = 0.44\nsamples = 4\nvalue = [0, 2, 0, 4]", fillcolor="#eb9cf2"] ;
334 -> 336 ;
337 [label="gini = 0.0\nsamples = 1\nvalue = [0, 0, 0, 1]", fillcolor="#d739e5"] ;
336 -> 337 ;
338 [label="gini = 0.48\nsamples = 3\nvalue = [0, 2, 0, 3]", fillcolor="#f2bdf6"] ;
336 -> 338 ;
339 [label="gini = 0.0\nsamples = 6\nvalue = [0, 0, 10, 0]", fillcolor="#399de5"] ;
321 -> 339 ;
340 [label="gini = 0.0\nsamples = 1\nvalue = [0, 0, 0, 1]", fillcolor="#d739e5"] ;
320 -> 340 ;
341 [label="X[0] <= 4.5\ngini = 0.04\nsamples = 900\nvalue = [12, 16, 2, 1405]", fillcolor="#d83de6"] ;
305 -> 341 ;
342 [label="X[3] <= 1.5\ngini = 0.04\nsamples = 899\nvalue = [9, 16, 2, 1405]", fillcolor="#d83de5"] ;
341 -> 342 ;
343 [label="X[3] <= 0.5\ngini = 0.18\nsamples = 49\nvalue = [5, 3, 0, 72]", fillcolor="#db4ee8"] ;
342 -> 343 ;
344 [label="X[6] <= 1.0\ngini = 0.08\nsamples = 34\nvalue = [0, 2, 0, 46]", fillcolor="#d942e6"] ;
343 -> 344 ;
345 [label="gini = 0.0\nsamples = 3\nvalue = [0, 0, 0, 4]", fillcolor="#d739e5"] ;
344 -> 345 ;
346 [label="X[0] <= 2.5\ngini = 0.09\nsamples = 31\nvalue = [0, 2, 0, 42]", fillcolor="#d942e6"] ;
344 -> 346 ;
347 [label="gini = 0.0\nsamples = 1\nvalue = [0, 0, 0, 1]", fillcolor="#d739e5"] ;
346 -> 347 ;
348 [label="X[1] <= 1.5\ngini = 0.09\nsamples = 30\nvalue = [0, 2, 0, 41]", fillcolor="#d943e6"] ;
346 -> 348 ;
349 [label="gini = 0.12\nsamples = 20\nvalue = [0, 2, 0, 28]", fillcolor="#da47e7"] ;
348 -> 349 ;
350 [label="gini = 0.0\nsamples = 10\nvalue = [0, 0, 0, 13]", fillcolor="#d739e5"] ;
348 -> 350 ;
351 [label="X[1] <= 0.5\ngini = 0.31\nsamples = 15\nvalue = [5, 1, 0, 26]", fillcolor="#e065eb"] ;
343 -> 351 ;
352 [label="gini = 0.08\nsamples = 12\nvalue = [0, 1, 0, 23]", fillcolor="#d942e6"] ;
351 -> 352 ;
353 [label="X[1] <= 2.0\ngini = 0.47\nsamples = 3\nvalue = [5, 0, 0, 3]", fillcolor="#f5cdb0"] ;
351 -> 353 ;
354 [label="gini = 0.0\nsamples = 1\nvalue = [5, 0, 0, 0]", fillcolor="#e58139"] ;
353 -> 354 ;
355 [label="gini = 0.0\nsamples = 2\nvalue = [0, 0, 0, 3]", fillcolor="#d739e5"] ;
353 -> 355 ;
356 [label="X[1] <= 0.5\ngini = 0.03\nsamples = 850\nvalue = [4, 13, 2, 1333]", fillcolor="#d83ce5"] ;
342 -> 356 ;
357 [label="X[6] <= 1.0\ngini = 0.02\nsamples = 731\nvalue = [2, 9, 2, 1148]", fillcolor="#d73be5"] ;
356 -> 357 ;
358 [label="X[0] <= 2.5\ngini = 0.03\nsamples = 105\nvalue = [2, 0, 1, 170]", fillcolor="#d83ce5"] ;
357 -> 358 ;
359 [label="gini = 0.0\nsamples = 16\nvalue = [0, 0, 0, 28]", fillcolor="#d739e5"] ;
358 -> 359 ;
360 [label="X[0] <= 3.5\ngini = 0.04\nsamples = 89\nvalue = [2, 0, 1, 142]", fillcolor="#d83de6"] ;
358 -> 360 ;
361 [label="X[3] <= 7.5\ngini = 0.05\nsamples = 76\nvalue = [2, 0, 1, 124]", fillcolor="#d83ee6"] ;
360 -> 361 ;
362 [label="X[3] <= 6.0\ngini = 0.05\nsamples = 25\nvalue = [0, 0, 1, 38]", fillcolor="#d83ee6"] ;
361 -> 362 ;
363 [label="gini = 0.0\nsamples = 3\nvalue = [0, 0, 0, 3]", fillcolor="#d739e5"] ;
362 -> 363 ;
364 [label="gini = 0.05\nsamples = 22\nvalue = [0, 0, 1, 35]", fillcolor="#d83fe6"] ;
362 -> 364 ;
365 [label="X[3] <= 8.5\ngini = 0.04\nsamples = 51\nvalue = [2, 0, 0, 86]", fillcolor="#d83ee6"] ;
361 -> 365 ;
366 [label="gini = 0.0\nsamples = 2\nvalue = [0, 0, 0, 3]", fillcolor="#d739e5"] ;
365 -> 366 ;
367 [label="X[3] <= 9.5\ngini = 0.05\nsamples = 49\nvalue = [2, 0, 0, 83]", fillcolor="#d83ee6"] ;
365 -> 367 ;
368 [label="gini = 0.05\nsamples = 48\nvalue = [2, 0, 0, 82]", fillcolor="#d83ee6"] ;
367 -> 368 ;
369 [label="gini = 0.0\nsamples = 1\nvalue = [0, 0, 0, 1]", fillcolor="#d739e5"] ;
367 -> 369 ;
370 [label="gini = 0.0\nsamples = 13\nvalue = [0, 0, 0, 18]", fillcolor="#d739e5"] ;
360 -> 370 ;
371 [label="X[3] <= 10.5\ngini = 0.02\nsamples = 626\nvalue = [0, 9, 1, 978]", fillcolor="#d73be5"] ;
357 -> 371 ;
372 [label="X[0] <= 2.5\ngini = 0.02\nsamples = 623\nvalue = [0, 8, 1, 973]", fillcolor="#d73be5"] ;
371 -> 372 ;
373 [label="gini = 0.0\nsamples = 9\nvalue = [0, 0, 0, 14]", fillcolor="#d739e5"] ;
372 -> 373 ;
374 [label="X[3] <= 8.5\ngini = 0.02\nsamples = 614\nvalue = [0, 8, 1, 959]", fillcolor="#d73be5"] ;
372 -> 374 ;
375 [label="gini = 0.0\nsamples = 131\nvalue = [0, 0, 0, 211]", fillcolor="#d739e5"] ;
374 -> 375 ;
376 [label="X[3] <= 9.5\ngini = 0.02\nsamples = 483\nvalue = [0, 8, 1, 748]", fillcolor="#d73be5"] ;
374 -> 376 ;
377 [label="X[0] <= 3.5\ngini = 0.02\nsamples = 476\nvalue = [0, 8, 1, 740]", fillcolor="#d73be5"] ;
376 -> 377 ;
378 [label="gini = 0.02\nsamples = 470\nvalue = [0, 8, 1, 729]", fillcolor="#d73be5"] ;
377 -> 378 ;
379 [label="gini = 0.0\nsamples = 6\nvalue = [0, 0, 0, 11]", fillcolor="#d739e5"] ;
377 -> 379 ;
380 [label="gini = 0.0\nsamples = 7\nvalue = [0, 0, 0, 8]", fillcolor="#d739e5"] ;
376 -> 380 ;
381 [label="gini = 0.28\nsamples = 3\nvalue = [0, 1, 0, 5]", fillcolor="#df61ea"] ;
371 -> 381 ;
382 [label="X[6] <= 1.0\ngini = 0.06\nsamples = 119\nvalue = [2, 4, 0, 185]", fillcolor="#d83fe6"] ;
356 -> 382 ;
383 [label="X[3] <= 8.5\ngini = 0.12\nsamples = 37\nvalue = [2, 2, 0, 57]", fillcolor="#da46e7"] ;
382 -> 383 ;
384 [label="X[1] <= 1.5\ngini = 0.15\nsamples = 14\nvalue = [2, 0, 0, 22]", fillcolor="#db4be7"] ;
383 -> 384 ;
385 [label="gini = 0.0\nsamples = 2\nvalue = [2, 0, 0, 0]", fillcolor="#e58139"] ;
384 -> 385 ;
386 [label="gini = 0.0\nsamples = 12\nvalue = [0, 0, 0, 22]", fillcolor="#d739e5"] ;
384 -> 386 ;
387 [label="X[0] <= 2.5\ngini = 0.1\nsamples = 23\nvalue = [0, 2, 0, 35]", fillcolor="#d944e6"] ;
383 -> 387 ;
388 [label="gini = 0.0\nsamples = 3\nvalue = [0, 0, 0, 4]", fillcolor="#d739e5"] ;
387 -> 388 ;
389 [label="X[1] <= 1.5\ngini = 0.11\nsamples = 20\nvalue = [0, 2, 0, 31]", fillcolor="#da46e7"] ;
387 -> 389 ;
390 [label="gini = 0.48\nsamples = 2\nvalue = [0, 2, 0, 3]", fillcolor="#f2bdf6"] ;
389 -> 390 ;
391 [label="gini = 0.0\nsamples = 18\nvalue = [0, 0, 0, 28]", fillcolor="#d739e5"] ;
389 -> 391 ;
392 [label="X[0] <= 2.5\ngini = 0.03\nsamples = 82\nvalue = [0, 2, 0, 128]", fillcolor="#d83ce5"] ;
382 -> 392 ;
393 [label="gini = 0.0\nsamples = 3\nvalue = [0, 0, 0, 6]", fillcolor="#d739e5"] ;
392 -> 393 ;
394 [label="X[3] <= 8.5\ngini = 0.03\nsamples = 79\nvalue = [0, 2, 0, 122]", fillcolor="#d83ce5"] ;
392 -> 394 ;
395 [label="gini = 0.0\nsamples = 45\nvalue = [0, 0, 0, 71]", fillcolor="#d739e5"] ;
394 -> 395 ;
396 [label="X[3] <= 9.5\ngini = 0.07\nsamples = 34\nvalue = [0, 2, 0, 51]", fillcolor="#d941e6"] ;
394 -> 396 ;
397 [label="X[1] <= 2.5\ngini = 0.08\nsamples = 33\nvalue = [0, 2, 0, 48]", fillcolor="#d941e6"] ;
396 -> 397 ;
398 [label="gini = 0.0\nsamples = 3\nvalue = [0, 0, 0, 5]", fillcolor="#d739e5"] ;
397 -> 398 ;
399 [label="X[1] <= 3.5\ngini = 0.08\nsamples = 30\nvalue = [0, 2, 0, 43]", fillcolor="#d942e6"] ;
397 -> 399 ;
400 [label="gini = 0.09\nsamples = 28\nvalue = [0, 2, 0, 41]", fillcolor="#d943e6"] ;
399 -> 400 ;
401 [label="gini = 0.0\nsamples = 2\nvalue = [0, 0, 0, 2]", fillcolor="#d739e5"] ;
399 -> 401 ;
402 [label="gini = 0.0\nsamples = 1\nvalue = [0, 0, 0, 3]", fillcolor="#d739e5"] ;
396 -> 402 ;
403 [label="gini = 0.0\nsamples = 1\nvalue = [3, 0, 0, 0]", fillcolor="#e58139"] ;
341 -> 403 ;
404 [label="X[6] <= 1.0\ngini = 0.44\nsamples = 4\nvalue = [0, 3, 0, 6]", fillcolor="#eb9cf2"] ;
304 -> 404 ;
405 [label="gini = 0.0\nsamples = 2\nvalue = [0, 0, 0, 4]", fillcolor="#d739e5"] ;
404 -> 405 ;
406 [label="gini = 0.48\nsamples = 2\nvalue = [0, 3, 0, 2]", fillcolor="#c2f6bd"] ;
404 -> 406 ;
407 [label="X[3] <= 8.5\ngini = 0.3\nsamples = 91\nvalue = [1, 19, 5, 119]", fillcolor="#df61ea"] ;
303 -> 407 ;
408 [label="X[1] <= 1.5\ngini = 0.11\nsamples = 48\nvalue = [0, 4, 0, 67]", fillcolor="#d945e7"] ;
407 -> 408 ;
409 [label="X[0] <= 1.0\ngini = 0.06\nsamples = 20\nvalue = [0, 1, 0, 30]", fillcolor="#d840e6"] ;
408 -> 409 ;
410 [label="X[3] <= 1.0\ngini = 0.44\nsamples = 3\nvalue = [0, 1, 0, 2]", fillcolor="#eb9cf2"] ;
409 -> 410 ;
411 [label="gini = 0.0\nsamples = 2\nvalue = [0, 0, 0, 2]", fillcolor="#d739e5"] ;
410 -> 411 ;
412 [label="gini = 0.0\nsamples = 1\nvalue = [0, 1, 0, 0]", fillcolor="#47e539"] ;
410 -> 412 ;
413 [label="gini = 0.0\nsamples = 17\nvalue = [0, 0, 0, 28]", fillcolor="#d739e5"] ;
409 -> 413 ;
414 [label="X[0] <= 1.5\ngini = 0.14\nsamples = 28\nvalue = [0, 3, 0, 37]", fillcolor="#da49e7"] ;
408 -> 414 ;
415 [label="X[3] <= 2.0\ngini = 0.49\nsamples = 4\nvalue = [0, 3, 0, 4]", fillcolor="#f5cef8"] ;
414 -> 415 ;
416 [label="X[3] <= 0.5\ngini = 0.38\nsamples = 2\nvalue = [0, 3, 0, 1]", fillcolor="#84ee7b"] ;
415 -> 416 ;
417 [label="gini = 0.0\nsamples = 1\nvalue = [0, 0, 0, 1]", fillcolor="#d739e5"] ;
416 -> 417 ;
418 [label="gini = 0.0\nsamples = 1\nvalue = [0, 3, 0, 0]", fillcolor="#47e539"] ;
416 -> 418 ;
419 [label="gini = 0.0\nsamples = 2\nvalue = [0, 0, 0, 3]", fillcolor="#d739e5"] ;
415 -> 419 ;
420 [label="gini = 0.0\nsamples = 24\nvalue = [0, 0, 0, 33]", fillcolor="#d739e5"] ;
414 -> 420 ;
421 [label="X[6] <= 6.5\ngini = 0.45\nsamples = 43\nvalue = [1, 15, 5, 52]", fillcolor="#e581ee"] ;
407 -> 421 ;
422 [label="X[3] <= 10.5\ngini = 0.35\nsamples = 25\nvalue = [0, 6, 3, 34]", fillcolor="#e169eb"] ;
421 -> 422 ;
423 [label="X[1] <= 1.0\ngini = 0.39\nsamples = 23\nvalue = [0, 6, 3, 29]", fillcolor="#e271ec"] ;
422 -> 423 ;
424 [label="X[6] <= 4.5\ngini = 0.42\nsamples = 22\nvalue = [0, 6, 3, 25]", fillcolor="#e479ed"] ;
423 -> 424 ;
425 [label="X[0] <= 0.5\ngini = 0.62\nsamples = 5\nvalue = [0, 2, 2, 4]", fillcolor="#f2bdf6"] ;
424 -> 425 ;
426 [label="X[3] <= 9.5\ngini = 0.5\nsamples = 2\nvalue = [0, 2, 0, 2]", fillcolor="#ffffff"] ;
425 -> 426 ;
427 [label="gini = 0.0\nsamples = 1\nvalue = [0, 0, 0, 2]", fillcolor="#d739e5"] ;
426 -> 427 ;
428 [label="gini = 0.0\nsamples = 1\nvalue = [0, 2, 0, 0]", fillcolor="#47e539"] ;
426 -> 428 ;
429 [label="X[0] <= 2.0\ngini = 0.5\nsamples = 3\nvalue = [0, 0, 2, 2]", fillcolor="#ffffff"] ;
425 -> 429 ;
430 [label="gini = 0.0\nsamples = 1\nvalue = [0, 0, 2, 0]", fillcolor="#399de5"] ;
429 -> 430 ;
431 [label="gini = 0.0\nsamples = 2\nvalue = [0, 0, 0, 2]", fillcolor="#d739e5"] ;
429 -> 431 ;
432 [label="X[0] <= 2.0\ngini = 0.32\nsamples = 17\nvalue = [0, 4, 1, 21]", fillcolor="#e066eb"] ;
424 -> 432 ;
433 [label="X[0] <= 0.5\ngini = 0.58\nsamples = 6\nvalue = [0, 4, 1, 5]", fillcolor="#f8defb"] ;
432 -> 433 ;
434 [label="gini = 0.49\nsamples = 5\nvalue = [0, 4, 0, 5]", fillcolor="#f7d7fa"] ;
433 -> 434 ;
435 [label="gini = 0.0\nsamples = 1\nvalue = [0, 0, 1, 0]", fillcolor="#399de5"] ;
433 -> 435 ;
436 [label="gini = 0.0\nsamples = 11\nvalue = [0, 0, 0, 16]", fillcolor="#d739e5"] ;
432 -> 436 ;
437 [label="gini = 0.0\nsamples = 1\nvalue = [0, 0, 0, 4]", fillcolor="#d739e5"] ;
423 -> 437 ;
438 [label="gini = 0.0\nsamples = 2\nvalue = [0, 0, 0, 5]", fillcolor="#d739e5"] ;
422 -> 438 ;
439 [label="X[3] <= 9.5\ngini = 0.54\nsamples = 18\nvalue = [1, 9, 2, 18]", fillcolor="#eeaaf4"] ;
421 -> 439 ;
440 [label="X[1] <= 1.5\ngini = 0.49\nsamples = 7\nvalue = [0, 5, 0, 7]", fillcolor="#f4c6f8"] ;
439 -> 440 ;
441 [label="gini = 0.0\nsamples = 1\nvalue = [0, 0, 0, 1]", fillcolor="#d739e5"] ;
440 -> 441 ;
442 [label="X[0] <= 1.5\ngini = 0.5\nsamples = 6\nvalue = [0, 5, 0, 6]", fillcolor="#f8defb"] ;
440 -> 442 ;
443 [label="gini = 0.0\nsamples = 2\nvalue = [0, 5, 0, 0]", fillcolor="#47e539"] ;
442 -> 443 ;
444 [label="gini = 0.0\nsamples = 4\nvalue = [0, 0, 0, 6]", fillcolor="#d739e5"] ;
442 -> 444 ;
445 [label="X[0] <= 2.0\ngini = 0.56\nsamples = 11\nvalue = [1, 4, 2, 11]", fillcolor="#eb9cf2"] ;
439 -> 445 ;
446 [label="X[0] <= 0.5\ngini = 0.57\nsamples = 5\nvalue = [1, 4, 2, 0]", fillcolor="#b5f5b0"] ;
445 -> 446 ;
447 [label="gini = 0.0\nsamples = 2\nvalue = [0, 4, 0, 0]", fillcolor="#47e539"] ;
446 -> 447 ;
448 [label="gini = 0.44\nsamples = 3\nvalue = [1, 0, 2, 0]", fillcolor="#9ccef2"] ;
446 -> 448 ;
449 [label="gini = 0.0\nsamples = 6\nvalue = [0, 0, 0, 11]", fillcolor="#d739e5"] ;
445 -> 449 ;
450 [label="X[6] <= 3.5\ngini = 0.33\nsamples = 1937\nvalue = [61, 462, 77, 2471]", fillcolor="#e067eb"] ;
300 -> 450 ;
451 [label="X[4] <= 0.5\ngini = 0.3\nsamples = 1734\nvalue = [32, 397, 51, 2274]", fillcolor="#df61ea"] ;
450 -> 451 ;
452 [label="X[0] <= 2.0\ngini = 0.24\nsamples = 730\nvalue = [12, 128, 19, 995]", fillcolor="#dd58e9"] ;
451 -> 452 ;
453 [label="X[6] <= 1.0\ngini = 0.58\nsamples = 140\nvalue = [8, 93, 14, 113]", fillcolor="#f9e2fb"] ;
452 -> 453 ;
454 [label="gini = 0.0\nsamples = 5\nvalue = [0, 0, 0, 6]", fillcolor="#d739e5"] ;
453 -> 454 ;
455 [label="X[2] <= -0.5\ngini = 0.59\nsamples = 135\nvalue = [8, 93, 14, 107]", fillcolor="#fbeafc"] ;
453 -> 455 ;
456 [label="gini = 0.0\nsamples = 1\nvalue = [0, 1, 0, 0]", fillcolor="#47e539"] ;
455 -> 456 ;
457 [label="X[3] <= 11.0\ngini = 0.59\nsamples = 134\nvalue = [8, 92, 14, 107]", fillcolor="#fae8fc"] ;
455 -> 457 ;
458 [label="X[3] <= 8.5\ngini = 0.58\nsamples = 129\nvalue = [8, 89, 11, 107]", fillcolor="#f9e3fb"] ;
457 -> 458 ;
459 [label="X[1] <= 1.5\ngini = 0.63\nsamples = 28\nvalue = [6, 17, 2, 23]", fillcolor="#f7d9fa"] ;
458 -> 459 ;
460 [label="X[3] <= 7.5\ngini = 0.6\nsamples = 25\nvalue = [3, 16, 2, 21]", fillcolor="#f7d9fa"] ;
459 -> 460 ;
461 [label="X[0] <= 0.5\ngini = 0.57\nsamples = 23\nvalue = [1, 16, 2, 18]", fillcolor="#fbecfd"] ;
460 -> 461 ;
462 [label="X[3] <= 4.0\ngini = 0.5\nsamples = 20\nvalue = [0, 16, 0, 15]", fillcolor="#f4fdf3"] ;
461 -> 462 ;
463 [label="X[3] <= 2.0\ngini = 0.48\nsamples = 8\nvalue = [0, 6, 0, 9]", fillcolor="#f2bdf6"] ;
462 -> 463 ;
464 [label="gini = 0.0\nsamples = 1\nvalue = [0, 0, 0, 1]", fillcolor="#d739e5"] ;
463 -> 464 ;
465 [label="gini = 0.49\nsamples = 7\nvalue = [0, 6, 0, 8]", fillcolor="#f5cef8"] ;
463 -> 465 ;
466 [label="X[3] <= 6.0\ngini = 0.47\nsamples = 12\nvalue = [0, 10, 0, 6]", fillcolor="#b5f5b0"] ;
462 -> 466 ;
467 [label="gini = 0.0\nsamples = 2\nvalue = [0, 3, 0, 0]", fillcolor="#47e539"] ;
466 -> 467 ;
468 [label="gini = 0.5\nsamples = 10\nvalue = [0, 7, 0, 6]", fillcolor="#e5fbe3"] ;
466 -> 468 ;
469 [label="gini = 0.61\nsamples = 3\nvalue = [1, 0, 2, 3]", fillcolor="#f5cef8"] ;
461 -> 469 ;
470 [label="X[0] <= 0.5\ngini = 0.48\nsamples = 2\nvalue = [2, 0, 0, 3]", fillcolor="#f2bdf6"] ;
460 -> 470 ;
471 [label="gini = 0.0\nsamples = 1\nvalue = [0, 0, 0, 3]", fillcolor="#d739e5"] ;
470 -> 471 ;
472 [label="gini = 0.0\nsamples = 1\nvalue = [2, 0, 0, 0]", fillcolor="#e58139"] ;
470 -> 472 ;
473 [label="X[0] <= 0.5\ngini = 0.61\nsamples = 3\nvalue = [3, 1, 0, 2]", fillcolor="#f8e0ce"] ;
459 -> 473 ;
474 [label="X[3] <= 7.5\ngini = 0.44\nsamples = 2\nvalue = [0, 1, 0, 2]", fillcolor="#eb9cf2"] ;
473 -> 474 ;
475 [label="gini = 0.0\nsamples = 1\nvalue = [0, 1, 0, 0]", fillcolor="#47e539"] ;
474 -> 475 ;
476 [label="gini = 0.0\nsamples = 1\nvalue = [0, 0, 0, 2]", fillcolor="#d739e5"] ;
474 -> 476 ;
477 [label="gini = 0.0\nsamples = 1\nvalue = [3, 0, 0, 0]", fillcolor="#e58139"] ;
473 -> 477 ;
478 [label="X[1] <= 1.0\ngini = 0.56\nsamples = 101\nvalue = [2, 72, 9, 84]", fillcolor="#fae6fc"] ;
458 -> 478 ;
479 [label="X[0] <= 0.5\ngini = 0.56\nsamples = 99\nvalue = [2, 72, 9, 80]", fillcolor="#fbeefd"] ;
478 -> 479 ;
480 [label="X[3] <= 9.5\ngini = 0.5\nsamples = 93\nvalue = [0, 72, 0, 80]", fillcolor="#fbebfc"] ;
479 -> 480 ;
481 [label="gini = 0.5\nsamples = 91\nvalue = [0, 70, 0, 78]", fillcolor="#fbebfc"] ;
480 -> 481 ;
482 [label="gini = 0.5\nsamples = 2\nvalue = [0, 2, 0, 2]", fillcolor="#ffffff"] ;
480 -> 482 ;
483 [label="gini = 0.3\nsamples = 6\nvalue = [2, 0, 9, 0]", fillcolor="#65b3eb"] ;
479 -> 483 ;
484 [label="gini = 0.0\nsamples = 2\nvalue = [0, 0, 0, 4]", fillcolor="#d739e5"] ;
478 -> 484 ;
485 [label="X[0] <= 0.5\ngini = 0.5\nsamples = 5\nvalue = [0, 3, 3, 0]", fillcolor="#ffffff"] ;
457 -> 485 ;
486 [label="gini = 0.0\nsamples = 3\nvalue = [0, 3, 0, 0]", fillcolor="#47e539"] ;
485 -> 486 ;
487 [label="gini = 0.0\nsamples = 2\nvalue = [0, 0, 3, 0]", fillcolor="#399de5"] ;
485 -> 487 ;
488 [label="X[1] <= 0.5\ngini = 0.09\nsamples = 590\nvalue = [4, 35, 5, 882]", fillcolor="#d943e6"] ;
452 -> 488 ;
489 [label="X[3] <= 0.5\ngini = 0.08\nsamples = 516\nvalue = [1, 28, 3, 790]", fillcolor="#d941e6"] ;
488 -> 489 ;
490 [label="gini = 0.38\nsamples = 3\nvalue = [0, 1, 0, 3]", fillcolor="#e47bee"] ;
489 -> 490 ;
491 [label="X[3] <= 9.5\ngini = 0.07\nsamples = 513\nvalue = [1, 27, 3, 787]", fillcolor="#d941e6"] ;
489 -> 491 ;
492 [label="X[6] <= 1.0\ngini = 0.08\nsamples = 493\nvalue = [1, 27, 3, 753]", fillcolor="#d941e6"] ;
491 -> 492 ;
493 [label="gini = 0.0\nsamples = 5\nvalue = [0, 0, 0, 9]", fillcolor="#d739e5"] ;
492 -> 493 ;
494 [label="X[3] <= 7.5\ngini = 0.08\nsamples = 488\nvalue = [1, 27, 3, 744]", fillcolor="#d941e6"] ;
492 -> 494 ;
495 [label="X[3] <= 6.5\ngini = 0.09\nsamples = 122\nvalue = [0, 9, 0, 185]", fillcolor="#d943e6"] ;
494 -> 495 ;
496 [label="X[3] <= 3.5\ngini = 0.06\nsamples = 25\nvalue = [0, 1, 0, 34]", fillcolor="#d83fe6"] ;
495 -> 496 ;
497 [label="X[3] <= 2.0\ngini = 0.07\nsamples = 19\nvalue = [0, 1, 0, 27]", fillcolor="#d840e6"] ;
496 -> 497 ;
498 [label="gini = 0.0\nsamples = 5\nvalue = [0, 0, 0, 6]", fillcolor="#d739e5"] ;
497 -> 498 ;
499 [label="gini = 0.09\nsamples = 14\nvalue = [0, 1, 0, 21]", fillcolor="#d942e6"] ;
497 -> 499 ;
500 [label="gini = 0.0\nsamples = 6\nvalue = [0, 0, 0, 7]", fillcolor="#d739e5"] ;
496 -> 500 ;
501 [label="gini = 0.1\nsamples = 97\nvalue = [0, 8, 0, 151]", fillcolor="#d943e6"] ;
495 -> 501 ;
502 [label="X[3] <= 8.5\ngini = 0.07\nsamples = 366\nvalue = [1, 18, 3, 559]", fillcolor="#d941e6"] ;
494 -> 502 ;
503 [label="gini = 0.0\nsamples = 4\nvalue = [0, 0, 0, 8]", fillcolor="#d739e5"] ;
502 -> 503 ;
504 [label="gini = 0.07\nsamples = 362\nvalue = [1, 18, 3, 551]", fillcolor="#d941e6"] ;
502 -> 504 ;
505 [label="gini = 0.0\nsamples = 20\nvalue = [0, 0, 0, 34]", fillcolor="#d739e5"] ;
491 -> 505 ;
506 [label="X[3] <= 2.5\ngini = 0.21\nsamples = 74\nvalue = [3, 7, 2, 92]", fillcolor="#dc51e8"] ;
488 -> 506 ;
507 [label="X[6] <= 1.0\ngini = 0.44\nsamples = 2\nvalue = [1, 0, 0, 2]", fillcolor="#eb9cf2"] ;
506 -> 507 ;
508 [label="gini = 0.0\nsamples = 1\nvalue = [1, 0, 0, 0]", fillcolor="#e58139"] ;
507 -> 508 ;
509 [label="gini = 0.0\nsamples = 1\nvalue = [0, 0, 0, 2]", fillcolor="#d739e5"] ;
507 -> 509 ;
510 [label="X[6] <= 2.0\ngini = 0.2\nsamples = 72\nvalue = [2, 7, 2, 90]", fillcolor="#dc50e8"] ;
506 -> 510 ;
511 [label="X[3] <= 8.5\ngini = 0.23\nsamples = 37\nvalue = [2, 2, 2, 41]", fillcolor="#dc53e8"] ;
510 -> 511 ;
512 [label="X[6] <= 0.0\ngini = 0.35\nsamples = 15\nvalue = [2, 0, 2, 15]", fillcolor="#e068eb"] ;
511 -> 512 ;
513 [label="X[3] <= 7.5\ngini = 0.21\nsamples = 14\nvalue = [2, 0, 0, 15]", fillcolor="#dc53e8"] ;
512 -> 513 ;
514 [label="gini = 0.0\nsamples = 11\nvalue = [0, 0, 0, 12]", fillcolor="#d739e5"] ;
513 -> 514 ;
515 [label="X[1] <= 1.5\ngini = 0.48\nsamples = 3\nvalue = [2, 0, 0, 3]", fillcolor="#f2bdf6"] ;
513 -> 515 ;
516 [label="gini = 0.0\nsamples = 1\nvalue = [2, 0, 0, 0]", fillcolor="#e58139"] ;
515 -> 516 ;
517 [label="gini = 0.0\nsamples = 2\nvalue = [0, 0, 0, 3]", fillcolor="#d739e5"] ;
515 -> 517 ;
518 [label="gini = 0.0\nsamples = 1\nvalue = [0, 0, 2, 0]", fillcolor="#399de5"] ;
512 -> 518 ;
519 [label="X[1] <= 1.5\ngini = 0.13\nsamples = 22\nvalue = [0, 2, 0, 26]", fillcolor="#da48e7"] ;
511 -> 519 ;
520 [label="gini = 0.0\nsamples = 3\nvalue = [0, 0, 0, 5]", fillcolor="#d739e5"] ;
519 -> 520 ;
521 [label="X[6] <= -0.5\ngini = 0.16\nsamples = 19\nvalue = [0, 2, 0, 21]", fillcolor="#db4ce7"] ;
519 -> 521 ;
522 [label="gini = 0.17\nsamples = 18\nvalue = [0, 2, 0, 20]", fillcolor="#db4de8"] ;
521 -> 522 ;
523 [label="gini = 0.0\nsamples = 1\nvalue = [0, 0, 0, 1]", fillcolor="#d739e5"] ;
521 -> 523 ;
524 [label="X[1] <= 2.5\ngini = 0.17\nsamples = 35\nvalue = [0, 5, 0, 49]", fillcolor="#db4de8"] ;
510 -> 524 ;
525 [label="gini = 0.0\nsamples = 4\nvalue = [0, 0, 0, 7]", fillcolor="#d739e5"] ;
524 -> 525 ;
526 [label="X[3] <= 6.5\ngini = 0.19\nsamples = 31\nvalue = [0, 5, 0, 42]", fillcolor="#dc51e8"] ;
524 -> 526 ;
527 [label="gini = 0.0\nsamples = 5\nvalue = [0, 0, 0, 6]", fillcolor="#d739e5"] ;
526 -> 527 ;
528 [label="X[3] <= 9.5\ngini = 0.21\nsamples = 26\nvalue = [0, 5, 0, 36]", fillcolor="#dd54e9"] ;
526 -> 528 ;
529 [label="X[3] <= 7.5\ngini = 0.22\nsamples = 25\nvalue = [0, 5, 0, 35]", fillcolor="#dd55e9"] ;
528 -> 529 ;
530 [label="gini = 0.23\nsamples = 8\nvalue = [0, 2, 0, 13]", fillcolor="#dd57e9"] ;
529 -> 530 ;
531 [label="X[1] <= 3.5\ngini = 0.21\nsamples = 17\nvalue = [0, 3, 0, 22]", fillcolor="#dc54e9"] ;
529 -> 531 ;
532 [label="X[3] <= 8.5\ngini = 0.24\nsamples = 15\nvalue = [0, 3, 0, 18]", fillcolor="#de5ae9"] ;
531 -> 532 ;
533 [label="gini = 0.0\nsamples = 1\nvalue = [0, 0, 0, 1]", fillcolor="#d739e5"] ;
532 -> 533 ;
534 [label="gini = 0.26\nsamples = 14\nvalue = [0, 3, 0, 17]", fillcolor="#de5cea"] ;
532 -> 534 ;
535 [label="gini = 0.0\nsamples = 2\nvalue = [0, 0, 0, 4]", fillcolor="#d739e5"] ;
531 -> 535 ;
536 [label="gini = 0.0\nsamples = 1\nvalue = [0, 0, 0, 1]", fillcolor="#d739e5"] ;
528 -> 536 ;
537 [label="X[2] <= -0.5\ngini = 0.33\nsamples = 1004\nvalue = [20, 269, 32, 1279]", fillcolor="#e169eb"] ;
451 -> 537 ;
538 [label="gini = 0.0\nsamples = 1\nvalue = [0, 0, 0, 1]", fillcolor="#d739e5"] ;
537 -> 538 ;
539 [label="X[4] <= 3.5\ngini = 0.33\nsamples = 1003\nvalue = [20, 269, 32, 1278]", fillcolor="#e169eb"] ;
537 -> 539 ;
540 [label="X[1] <= 1.5\ngini = 0.35\nsamples = 817\nvalue = [16, 231, 30, 1019]", fillcolor="#e16cec"] ;
539 -> 540 ;
541 [label="X[0] <= 2.0\ngini = 0.36\nsamples = 747\nvalue = [12, 224, 30, 917]", fillcolor="#e270ec"] ;
540 -> 541 ;
542 [label="X[0] <= 0.5\ngini = 0.58\nsamples = 169\nvalue = [6, 153, 25, 104]", fillcolor="#cef8ca"] ;
541 -> 542 ;
543 [label="X[6] <= 1.0\ngini = 0.51\nsamples = 156\nvalue = [5, 153, 2, 104]", fillcolor="#c7f7c2"] ;
542 -> 543 ;
544 [label="gini = 0.0\nsamples = 3\nvalue = [0, 4, 0, 0]", fillcolor="#47e539"] ;
543 -> 544 ;
545 [label="X[4] <= 1.5\ngini = 0.51\nsamples = 153\nvalue = [5, 149, 2, 104]", fillcolor="#caf8c6"] ;
543 -> 545 ;
546 [label="X[3] <= 11.5\ngini = 0.5\nsamples = 28\nvalue = [0, 21, 0, 22]", fillcolor="#fdf6fe"] ;
545 -> 546 ;
547 [label="X[3] <= 10.0\ngini = 0.5\nsamples = 27\nvalue = [0, 21, 0, 19]", fillcolor="#edfdec"] ;
546 -> 547 ;
548 [label="X[3] <= 5.0\ngini = 0.5\nsamples = 26\nvalue = [0, 19, 0, 19]", fillcolor="#ffffff"] ;
547 -> 548 ;
549 [label="gini = 0.32\nsamples = 3\nvalue = [0, 4, 0, 1]", fillcolor="#75ec6a"] ;
548 -> 549 ;
550 [label="X[3] <= 8.0\ngini = 0.5\nsamples = 23\nvalue = [0, 15, 0, 18]", fillcolor="#f8defb"] ;
548 -> 550 ;
551 [label="gini = 0.0\nsamples = 2\nvalue = [0, 0, 0, 2]", fillcolor="#d739e5"] ;
550 -> 551 ;
552 [label="gini = 0.5\nsamples = 21\nvalue = [0, 15, 0, 16]", fillcolor="#fcf3fd"] ;
550 -> 552 ;
553 [label="gini = 0.0\nsamples = 1\nvalue = [0, 2, 0, 0]", fillcolor="#47e539"] ;
547 -> 553 ;
554 [label="gini = 0.0\nsamples = 1\nvalue = [0, 0, 0, 3]", fillcolor="#d739e5"] ;
546 -> 554 ;
555 [label="X[3] <= 10.5\ngini = 0.51\nsamples = 125\nvalue = [5, 128, 2, 82]", fillcolor="#c0f6bc"] ;
545 -> 555 ;
556 [label="X[3] <= 9.5\ngini = 0.5\nsamples = 114\nvalue = [4, 118, 0, 80]", fillcolor="#c6f7c1"] ;
555 -> 556 ;
557 [label="X[3] <= 2.0\ngini = 0.49\nsamples = 110\nvalue = [4, 118, 0, 73]", fillcolor="#bbf5b6"] ;
556 -> 557 ;
558 [label="gini = 0.0\nsamples = 2\nvalue = [0, 4, 0, 0]", fillcolor="#47e539"] ;
557 -> 558 ;
559 [label="X[3] <= 7.5\ngini = 0.5\nsamples = 108\nvalue = [4, 114, 0, 73]", fillcolor="#bff6ba"] ;
557 -> 559 ;
560 [label="X[3] <= 6.0\ngini = 0.54\nsamples = 21\nvalue = [2, 19, 0, 15]", fillcolor="#dcfad9"] ;
559 -> 560 ;
561 [label="X[4] <= 2.5\ngini = 0.44\nsamples = 11\nvalue = [0, 12, 0, 6]", fillcolor="#a3f29c"] ;
560 -> 561 ;
562 [label="X[3] <= 4.0\ngini = 0.42\nsamples = 10\nvalue = [0, 12, 0, 5]", fillcolor="#94f08b"] ;
561 -> 562 ;
563 [label="gini = 0.43\nsamples = 9\nvalue = [0, 11, 0, 5]", fillcolor="#9bf193"] ;
562 -> 563 ;
564 [label="gini = 0.0\nsamples = 1\nvalue = [0, 1, 0, 0]", fillcolor="#47e539"] ;
562 -> 564 ;
565 [label="gini = 0.0\nsamples = 1\nvalue = [0, 0, 0, 1]", fillcolor="#d739e5"] ;
561 -> 565 ;
566 [label="X[4] <= 2.5\ngini = 0.59\nsamples = 10\nvalue = [2, 7, 0, 9]", fillcolor="#f8dbfa"] ;
560 -> 566 ;
567 [label="gini = 0.49\nsamples = 6\nvalue = [0, 5, 0, 7]", fillcolor="#f4c6f8"] ;
566 -> 567 ;
568 [label="gini = 0.67\nsamples = 4\nvalue = [2, 2, 0, 2]", fillcolor="#ffffff"] ;
566 -> 568 ;
569 [label="X[4] <= 2.5\ngini = 0.48\nsamples = 87\nvalue = [2, 95, 0, 58]", fillcolor="#b9f5b3"] ;
559 -> 569 ;
570 [label="X[3] <= 8.5\ngini = 0.49\nsamples = 60\nvalue = [2, 68, 0, 40]", fillcolor="#b5f5b0"] ;
569 -> 570 ;
571 [label="gini = 0.0\nsamples = 1\nvalue = [0, 1, 0, 0]", fillcolor="#47e539"] ;
570 -> 571 ;
572 [label="gini = 0.49\nsamples = 59\nvalue = [2, 67, 0, 40]", fillcolor="#b7f5b2"] ;
570 -> 572 ;
573 [label="gini = 0.48\nsamples = 27\nvalue = [0, 27, 0, 18]", fillcolor="#c2f6bd"] ;
569 -> 573 ;
574 [label="gini = 0.0\nsamples = 4\nvalue = [0, 0, 0, 7]", fillcolor="#d739e5"] ;
556 -> 574 ;
575 [label="X[4] <= 2.5\ngini = 0.52\nsamples = 11\nvalue = [1, 10, 2, 2]", fillcolor="#8eef85"] ;
555 -> 575 ;
576 [label="X[3] <= 11.5\ngini = 0.6\nsamples = 9\nvalue = [1, 7, 2, 2]", fillcolor="#a3f29c"] ;
575 -> 576 ;
577 [label="gini = 0.44\nsamples = 2\nvalue = [0, 1, 2, 0]", fillcolor="#9ccef2"] ;
576 -> 577 ;
578 [label="gini = 0.49\nsamples = 7\nvalue = [1, 6, 0, 2]", fillcolor="#96f08e"] ;
576 -> 578 ;
579 [label="gini = 0.0\nsamples = 2\nvalue = [0, 3, 0, 0]", fillcolor="#47e539"] ;
575 -> 579 ;
580 [label="X[3] <= 8.5\ngini = 0.08\nsamples = 13\nvalue = [1, 0, 23, 0]", fillcolor="#42a1e6"] ;
542 -> 580 ;
581 [label="X[4] <= 1.5\ngini = 0.22\nsamples = 5\nvalue = [1, 0, 7, 0]", fillcolor="#55abe9"] ;
580 -> 581 ;
582 [label="X[3] <= 7.5\ngini = 0.44\nsamples = 2\nvalue = [1, 0, 2, 0]", fillcolor="#9ccef2"] ;
581 -> 582 ;
583 [label="gini = 0.0\nsamples = 1\nvalue = [0, 0, 2, 0]", fillcolor="#399de5"] ;
582 -> 583 ;
584 [label="gini = 0.0\nsamples = 1\nvalue = [1, 0, 0, 0]", fillcolor="#e58139"] ;
582 -> 584 ;
585 [label="gini = 0.0\nsamples = 3\nvalue = [0, 0, 5, 0]", fillcolor="#399de5"] ;
581 -> 585 ;
586 [label="gini = 0.0\nsamples = 8\nvalue = [0, 0, 16, 0]", fillcolor="#399de5"] ;
580 -> 586 ;
587 [label="X[3] <= 11.5\ngini = 0.17\nsamples = 578\nvalue = [6, 71, 5, 813]", fillcolor="#db4de8"] ;
541 -> 587 ;
588 [label="X[3] <= 2.5\ngini = 0.16\nsamples = 550\nvalue = [5, 62, 5, 784]", fillcolor="#db4be7"] ;
587 -> 588 ;
589 [label="X[3] <= 1.5\ngini = 0.29\nsamples = 15\nvalue = [0, 0, 5, 23]", fillcolor="#e064eb"] ;
588 -> 589 ;
590 [label="gini = 0.0\nsamples = 13\nvalue = [0, 0, 0, 23]", fillcolor="#d739e5"] ;
589 -> 590 ;
591 [label="gini = 0.0\nsamples = 2\nvalue = [0, 0, 5, 0]", fillcolor="#399de5"] ;
589 -> 591 ;
592 [label="X[6] <= 1.0\ngini = 0.15\nsamples = 535\nvalue = [5, 62, 0, 761]", fillcolor="#da4ae7"] ;
588 -> 592 ;
593 [label="X[3] <= 8.5\ngini = 0.35\nsamples = 9\nvalue = [4, 0, 0, 14]", fillcolor="#e272ec"] ;
592 -> 593 ;
594 [label="gini = 0.0\nsamples = 1\nvalue = [2, 0, 0, 0]", fillcolor="#e58139"] ;
593 -> 594 ;
595 [label="X[3] <= 9.5\ngini = 0.22\nsamples = 8\nvalue = [2, 0, 0, 14]", fillcolor="#dd55e9"] ;
593 -> 595 ;
596 [label="X[1] <= 0.5\ngini = 0.24\nsamples = 7\nvalue = [2, 0, 0, 12]", fillcolor="#de5ae9"] ;
595 -> 596 ;
597 [label="gini = 0.0\nsamples = 5\nvalue = [0, 0, 0, 10]", fillcolor="#d739e5"] ;
596 -> 597 ;
598 [label="X[4] <= 2.0\ngini = 0.5\nsamples = 2\nvalue = [2, 0, 0, 2]", fillcolor="#ffffff"] ;
596 -> 598 ;
599 [label="gini = 0.0\nsamples = 1\nvalue = [0, 0, 0, 2]", fillcolor="#d739e5"] ;
598 -> 599 ;
600 [label="gini = 0.0\nsamples = 1\nvalue = [2, 0, 0, 0]", fillcolor="#e58139"] ;
598 -> 600 ;
601 [label="gini = 0.0\nsamples = 1\nvalue = [0, 0, 0, 2]", fillcolor="#d739e5"] ;
595 -> 601 ;
602 [label="X[4] <= 2.5\ngini = 0.14\nsamples = 526\nvalue = [1, 62, 0, 747]", fillcolor="#da4ae7"] ;
592 -> 602 ;
603 [label="X[3] <= 5.5\ngini = 0.16\nsamples = 411\nvalue = [1, 55, 0, 582]", fillcolor="#db4ce7"] ;
602 -> 603 ;
604 [label="X[4] <= 1.5\ngini = 0.25\nsamples = 36\nvalue = [1, 7, 0, 49]", fillcolor="#dd59e9"] ;
603 -> 604 ;
605 [label="gini = 0.32\nsamples = 5\nvalue = [0, 2, 0, 8]", fillcolor="#e16aec"] ;
604 -> 605 ;
606 [label="X[3] <= 4.0\ngini = 0.23\nsamples = 31\nvalue = [1, 5, 0, 41]", fillcolor="#dd55e9"] ;
604 -> 606 ;
607 [label="gini = 0.15\nsamples = 17\nvalue = [1, 1, 0, 23]", fillcolor="#da49e7"] ;
606 -> 607 ;
608 [label="gini = 0.3\nsamples = 14\nvalue = [0, 4, 0, 18]", fillcolor="#e065eb"] ;
606 -> 608 ;
609 [label="X[4] <= 1.5\ngini = 0.15\nsamples = 375\nvalue = [0, 48, 0, 533]", fillcolor="#db4be7"] ;
603 -> 609 ;
610 [label="X[3] <= 10.0\ngini = 0.19\nsamples = 82\nvalue = [0, 12, 0, 103]", fillcolor="#dc50e8"] ;
609 -> 610 ;
611 [label="X[3] <= 8.5\ngini = 0.2\nsamples = 79\nvalue = [0, 12, 0, 96]", fillcolor="#dc52e8"] ;
610 -> 611 ;
612 [label="X[3] <= 7.5\ngini = 0.17\nsamples = 15\nvalue = [0, 2, 0, 19]", fillcolor="#db4ee8"] ;
611 -> 612 ;
613 [label="gini = 0.18\nsamples = 14\nvalue = [0, 2, 0, 18]", fillcolor="#db4fe8"] ;
612 -> 613 ;
614 [label="gini = 0.0\nsamples = 1\nvalue = [0, 0, 0, 1]", fillcolor="#d739e5"] ;
612 -> 614 ;
615 [label="gini = 0.2\nsamples = 64\nvalue = [0, 10, 0, 77]", fillcolor="#dc53e8"] ;
611 -> 615 ;
616 [label="gini = 0.0\nsamples = 3\nvalue = [0, 0, 0, 7]", fillcolor="#d739e5"] ;
610 -> 616 ;
617 [label="X[3] <= 9.5\ngini = 0.14\nsamples = 293\nvalue = [0, 36, 0, 430]", fillcolor="#da4ae7"] ;
609 -> 617 ;
618 [label="X[3] <= 6.5\ngini = 0.15\nsamples = 288\nvalue = [0, 36, 0, 421]", fillcolor="#da4ae7"] ;
617 -> 618 ;
619 [label="gini = 0.0\nsamples = 1\nvalue = [0, 0, 0, 1]", fillcolor="#d739e5"] ;
618 -> 619 ;
620 [label="X[3] <= 8.5\ngini = 0.15\nsamples = 287\nvalue = [0, 36, 0, 420]", fillcolor="#da4ae7"] ;
618 -> 620 ;
621 [label="X[3] <= 7.5\ngini = 0.14\nsamples = 33\nvalue = [0, 4, 0, 49]", fillcolor="#da49e7"] ;
620 -> 621 ;
622 [label="gini = 0.14\nsamples = 31\nvalue = [0, 4, 0, 47]", fillcolor="#da4ae7"] ;
621 -> 622 ;
623 [label="gini = 0.0\nsamples = 2\nvalue = [0, 0, 0, 2]", fillcolor="#d739e5"] ;
621 -> 623 ;
624 [label="gini = 0.15\nsamples = 254\nvalue = [0, 32, 0, 371]", fillcolor="#da4ae7"] ;
620 -> 624 ;
625 [label="gini = 0.0\nsamples = 5\nvalue = [0, 0, 0, 9]", fillcolor="#d739e5"] ;
617 -> 625 ;
626 [label="X[3] <= 3.5\ngini = 0.08\nsamples = 115\nvalue = [0, 7, 0, 165]", fillcolor="#d941e6"] ;
602 -> 626 ;
627 [label="gini = 0.32\nsamples = 7\nvalue = [0, 2, 0, 8]", fillcolor="#e16aec"] ;
626 -> 627 ;
628 [label="X[3] <= 8.5\ngini = 0.06\nsamples = 108\nvalue = [0, 5, 0, 157]", fillcolor="#d83fe6"] ;
626 -> 628 ;
629 [label="gini = 0.0\nsamples = 16\nvalue = [0, 0, 0, 24]", fillcolor="#d739e5"] ;
628 -> 629 ;
630 [label="X[3] <= 9.5\ngini = 0.07\nsamples = 92\nvalue = [0, 5, 0, 133]", fillcolor="#d940e6"] ;
628 -> 630 ;
631 [label="gini = 0.08\nsamples = 84\nvalue = [0, 5, 0, 119]", fillcolor="#d941e6"] ;
630 -> 631 ;
632 [label="gini = 0.0\nsamples = 8\nvalue = [0, 0, 0, 14]", fillcolor="#d739e5"] ;
630 -> 632 ;
633 [label="X[4] <= 2.5\ngini = 0.39\nsamples = 28\nvalue = [1, 9, 0, 29]", fillcolor="#e47bee"] ;
587 -> 633 ;
634 [label="X[4] <= 1.5\ngini = 0.35\nsamples = 24\nvalue = [0, 8, 0, 27]", fillcolor="#e374ed"] ;
633 -> 634 ;
635 [label="gini = 0.46\nsamples = 5\nvalue = [0, 4, 0, 7]", fillcolor="#eeaaf4"] ;
634 -> 635 ;
636 [label="gini = 0.28\nsamples = 19\nvalue = [0, 4, 0, 20]", fillcolor="#df61ea"] ;
634 -> 636 ;
637 [label="gini = 0.62\nsamples = 4\nvalue = [1, 1, 0, 2]", fillcolor="#f2bdf6"] ;
633 -> 637 ;
638 [label="X[4] <= 2.5\ngini = 0.18\nsamples = 70\nvalue = [4, 7, 0, 102]", fillcolor="#db4ee8"] ;
540 -> 638 ;
639 [label="X[0] <= 2.0\ngini = 0.21\nsamples = 52\nvalue = [4, 6, 0, 78]", fillcolor="#dc51e8"] ;
638 -> 639 ;
640 [label="X[0] <= 0.5\ngini = 0.54\nsamples = 11\nvalue = [4, 4, 0, 13]", fillcolor="#ea96f1"] ;
639 -> 640 ;
641 [label="X[6] <= -0.5\ngini = 0.36\nsamples = 10\nvalue = [0, 4, 0, 13]", fillcolor="#e376ed"] ;
640 -> 641 ;
642 [label="gini = 0.0\nsamples = 1\nvalue = [0, 1, 0, 0]", fillcolor="#47e539"] ;
641 -> 642 ;
643 [label="X[1] <= 2.5\ngini = 0.3\nsamples = 9\nvalue = [0, 3, 0, 13]", fillcolor="#e067eb"] ;
641 -> 643 ;
644 [label="gini = 0.0\nsamples = 2\nvalue = [0, 0, 0, 3]", fillcolor="#d739e5"] ;
643 -> 644 ;
645 [label="X[4] <= 1.5\ngini = 0.36\nsamples = 7\nvalue = [0, 3, 0, 10]", fillcolor="#e374ed"] ;
643 -> 645 ;
646 [label="gini = 0.0\nsamples = 1\nvalue = [0, 1, 0, 0]", fillcolor="#47e539"] ;
645 -> 646 ;
647 [label="X[3] <= 10.5\ngini = 0.28\nsamples = 6\nvalue = [0, 2, 0, 10]", fillcolor="#df61ea"] ;
645 -> 647 ;
648 [label="X[3] <= 5.0\ngini = 0.35\nsamples = 5\nvalue = [0, 2, 0, 7]", fillcolor="#e272ec"] ;
647 -> 648 ;
649 [label="gini = 0.0\nsamples = 1\nvalue = [0, 0, 0, 2]", fillcolor="#d739e5"] ;
648 -> 649 ;
650 [label="gini = 0.41\nsamples = 4\nvalue = [0, 2, 0, 5]", fillcolor="#e788ef"] ;
648 -> 650 ;
651 [label="gini = 0.0\nsamples = 1\nvalue = [0, 0, 0, 3]", fillcolor="#d739e5"] ;
647 -> 651 ;
652 [label="gini = 0.0\nsamples = 1\nvalue = [4, 0, 0, 0]", fillcolor="#e58139"] ;
640 -> 652 ;
653 [label="X[1] <= 2.5\ngini = 0.06\nsamples = 41\nvalue = [0, 2, 0, 65]", fillcolor="#d83fe6"] ;
639 -> 653 ;
654 [label="gini = 0.0\nsamples = 9\nvalue = [0, 0, 0, 14]", fillcolor="#d739e5"] ;
653 -> 654 ;
655 [label="X[3] <= 1.5\ngini = 0.07\nsamples = 32\nvalue = [0, 2, 0, 51]", fillcolor="#d941e6"] ;
653 -> 655 ;
656 [label="X[3] <= 0.5\ngini = 0.24\nsamples = 5\nvalue = [0, 1, 0, 6]", fillcolor="#de5ae9"] ;
655 -> 656 ;
657 [label="gini = 0.0\nsamples = 1\nvalue = [0, 0, 0, 3]", fillcolor="#d739e5"] ;
656 -> 657 ;
658 [label="X[4] <= 1.5\ngini = 0.38\nsamples = 4\nvalue = [0, 1, 0, 3]", fillcolor="#e47bee"] ;
656 -> 658 ;
659 [label="gini = 0.0\nsamples = 2\nvalue = [0, 0, 0, 2]", fillcolor="#d739e5"] ;
658 -> 659 ;
660 [label="gini = 0.5\nsamples = 2\nvalue = [0, 1, 0, 1]", fillcolor="#ffffff"] ;
658 -> 660 ;
661 [label="X[4] <= 1.5\ngini = 0.04\nsamples = 27\nvalue = [0, 1, 0, 45]", fillcolor="#d83de6"] ;
655 -> 661 ;
662 [label="gini = 0.0\nsamples = 2\nvalue = [0, 0, 0, 6]", fillcolor="#d739e5"] ;
661 -> 662 ;
663 [label="X[3] <= 8.5\ngini = 0.05\nsamples = 25\nvalue = [0, 1, 0, 39]", fillcolor="#d83ee6"] ;
661 -> 663 ;
664 [label="gini = 0.0\nsamples = 10\nvalue = [0, 0, 0, 10]", fillcolor="#d739e5"] ;
663 -> 664 ;
665 [label="X[3] <= 9.5\ngini = 0.06\nsamples = 15\nvalue = [0, 1, 0, 29]", fillcolor="#d840e6"] ;
663 -> 665 ;
666 [label="gini = 0.09\nsamples = 12\nvalue = [0, 1, 0, 19]", fillcolor="#d943e6"] ;
665 -> 666 ;
667 [label="gini = 0.0\nsamples = 3\nvalue = [0, 0, 0, 10]", fillcolor="#d739e5"] ;
665 -> 667 ;
668 [label="X[6] <= 1.5\ngini = 0.08\nsamples = 18\nvalue = [0, 1, 0, 24]", fillcolor="#d941e6"] ;
638 -> 668 ;
669 [label="gini = 0.0\nsamples = 6\nvalue = [0, 0, 0, 11]", fillcolor="#d739e5"] ;
668 -> 669 ;
670 [label="X[1] <= 2.5\ngini = 0.13\nsamples = 12\nvalue = [0, 1, 0, 13]", fillcolor="#da48e7"] ;
668 -> 670 ;
671 [label="gini = 0.0\nsamples = 1\nvalue = [0, 0, 0, 1]", fillcolor="#d739e5"] ;
670 -> 671 ;
672 [label="X[3] <= 3.5\ngini = 0.14\nsamples = 11\nvalue = [0, 1, 0, 12]", fillcolor="#da49e7"] ;
670 -> 672 ;
673 [label="gini = 0.0\nsamples = 2\nvalue = [0, 0, 0, 3]", fillcolor="#d739e5"] ;
672 -> 673 ;
674 [label="X[3] <= 7.5\ngini = 0.18\nsamples = 9\nvalue = [0, 1, 0, 9]", fillcolor="#db4fe8"] ;
672 -> 674 ;
675 [label="gini = 0.24\nsamples = 6\nvalue = [0, 1, 0, 6]", fillcolor="#de5ae9"] ;
674 -> 675 ;
676 [label="gini = 0.0\nsamples = 3\nvalue = [0, 0, 0, 3]", fillcolor="#d739e5"] ;
674 -> 676 ;
677 [label="X[0] <= 2.0\ngini = 0.25\nsamples = 186\nvalue = [4, 38, 2, 259]", fillcolor="#de5ae9"] ;
539 -> 677 ;
678 [label="X[0] <= 0.5\ngini = 0.58\nsamples = 38\nvalue = [4, 30, 2, 27]", fillcolor="#f0fdee"] ;
677 -> 678 ;
679 [label="X[3] <= 5.0\ngini = 0.5\nsamples = 34\nvalue = [0, 30, 0, 27]", fillcolor="#edfceb"] ;
678 -> 679 ;
680 [label="gini = 0.0\nsamples = 1\nvalue = [0, 0, 0, 3]", fillcolor="#d739e5"] ;
679 -> 680 ;
681 [label="X[3] <= 10.5\ngini = 0.49\nsamples = 33\nvalue = [0, 30, 0, 24]", fillcolor="#dafad7"] ;
679 -> 681 ;
682 [label="X[3] <= 8.0\ngini = 0.5\nsamples = 32\nvalue = [0, 27, 0, 24]", fillcolor="#ebfce9"] ;
681 -> 682 ;
683 [label="gini = 0.46\nsamples = 7\nvalue = [0, 9, 0, 5]", fillcolor="#adf3a7"] ;
682 -> 683 ;
684 [label="gini = 0.5\nsamples = 25\nvalue = [0, 18, 0, 19]", fillcolor="#fdf5fe"] ;
682 -> 684 ;
685 [label="gini = 0.0\nsamples = 1\nvalue = [0, 3, 0, 0]", fillcolor="#47e539"] ;
681 -> 685 ;
686 [label="X[3] <= 6.5\ngini = 0.44\nsamples = 4\nvalue = [4, 0, 2, 0]", fillcolor="#f2c09c"] ;
678 -> 686 ;
687 [label="gini = 0.0\nsamples = 1\nvalue = [1, 0, 0, 0]", fillcolor="#e58139"] ;
686 -> 687 ;
688 [label="gini = 0.48\nsamples = 3\nvalue = [3, 0, 2, 0]", fillcolor="#f6d5bd"] ;
686 -> 688 ;
689 [label="X[6] <= 1.0\ngini = 0.06\nsamples = 148\nvalue = [0, 8, 0, 232]", fillcolor="#d840e6"] ;
677 -> 689 ;
690 [label="gini = 0.0\nsamples = 1\nvalue = [0, 0, 0, 2]", fillcolor="#d739e5"] ;
689 -> 690 ;
691 [label="X[1] <= 1.0\ngini = 0.06\nsamples = 147\nvalue = [0, 8, 0, 230]", fillcolor="#d840e6"] ;
689 -> 691 ;
692 [label="X[3] <= 4.0\ngini = 0.07\nsamples = 146\nvalue = [0, 8, 0, 229]", fillcolor="#d840e6"] ;
691 -> 692 ;
693 [label="X[3] <= 2.0\ngini = 0.38\nsamples = 4\nvalue = [0, 2, 0, 6]", fillcolor="#e47bee"] ;
692 -> 693 ;
694 [label="gini = 0.0\nsamples = 1\nvalue = [0, 0, 0, 3]", fillcolor="#d739e5"] ;
693 -> 694 ;
695 [label="gini = 0.48\nsamples = 3\nvalue = [0, 2, 0, 3]", fillcolor="#f2bdf6"] ;
693 -> 695 ;
696 [label="X[3] <= 8.5\ngini = 0.05\nsamples = 142\nvalue = [0, 6, 0, 223]", fillcolor="#d83ee6"] ;
692 -> 696 ;
697 [label="X[3] <= 6.0\ngini = 0.02\nsamples = 52\nvalue = [0, 1, 0, 86]", fillcolor="#d73be5"] ;
696 -> 697 ;
698 [label="gini = 0.0\nsamples = 2\nvalue = [0, 0, 0, 2]", fillcolor="#d739e5"] ;
697 -> 698 ;
699 [label="X[3] <= 7.5\ngini = 0.02\nsamples = 50\nvalue = [0, 1, 0, 84]", fillcolor="#d73be5"] ;
697 -> 699 ;
700 [label="gini = 0.02\nsamples = 49\nvalue = [0, 1, 0, 83]", fillcolor="#d73be5"] ;
699 -> 700 ;
701 [label="gini = 0.0\nsamples = 1\nvalue = [0, 0, 0, 1]", fillcolor="#d739e5"] ;
699 -> 701 ;
702 [label="X[3] <= 9.5\ngini = 0.07\nsamples = 90\nvalue = [0, 5, 0, 137]", fillcolor="#d840e6"] ;
696 -> 702 ;
703 [label="gini = 0.07\nsamples = 85\nvalue = [0, 5, 0, 128]", fillcolor="#d941e6"] ;
702 -> 703 ;
704 [label="gini = 0.0\nsamples = 5\nvalue = [0, 0, 0, 9]", fillcolor="#d739e5"] ;
702 -> 704 ;
705 [label="gini = 0.0\nsamples = 1\nvalue = [0, 0, 0, 1]", fillcolor="#d739e5"] ;
691 -> 705 ;
706 [label="X[6] <= 5.5\ngini = 0.56\nsamples = 203\nvalue = [29, 65, 26, 197]", fillcolor="#ea97f1"] ;
450 -> 706 ;
707 [label="X[3] <= 11.0\ngini = 0.7\nsamples = 37\nvalue = [15, 8, 9, 24]", fillcolor="#f6d4f9"] ;
706 -> 707 ;
708 [label="X[6] <= 4.5\ngini = 0.58\nsamples = 24\nvalue = [3, 8, 4, 22]", fillcolor="#ec9ff2"] ;
707 -> 708 ;
709 [label="X[4] <= 2.5\ngini = 0.6\nsamples = 18\nvalue = [3, 5, 4, 17]", fillcolor="#eb9cf2"] ;
708 -> 709 ;
710 [label="X[4] <= 1.5\ngini = 0.57\nsamples = 16\nvalue = [3, 3, 4, 16]", fillcolor="#e993f1"] ;
709 -> 710 ;
711 [label="X[3] <= 5.0\ngini = 0.55\nsamples = 13\nvalue = [3, 3, 2, 14]", fillcolor="#e88cf0"] ;
710 -> 711 ;
712 [label="X[4] <= 0.5\ngini = 0.64\nsamples = 3\nvalue = [2, 1, 2, 0]", fillcolor="#ffffff"] ;
711 -> 712 ;
713 [label="X[3] <= 3.5\ngini = 0.5\nsamples = 2\nvalue = [2, 0, 2, 0]", fillcolor="#ffffff"] ;
712 -> 713 ;
714 [label="gini = 0.0\nsamples = 1\nvalue = [2, 0, 0, 0]", fillcolor="#e58139"] ;
713 -> 714 ;
715 [label="gini = 0.0\nsamples = 1\nvalue = [0, 0, 2, 0]", fillcolor="#399de5"] ;
713 -> 715 ;
716 [label="gini = 0.0\nsamples = 1\nvalue = [0, 1, 0, 0]", fillcolor="#47e539"] ;
712 -> 716 ;
717 [label="X[0] <= 1.5\ngini = 0.3\nsamples = 10\nvalue = [1, 2, 0, 14]", fillcolor="#df61ea"] ;
711 -> 717 ;
718 [label="X[3] <= 8.5\ngini = 0.5\nsamples = 3\nvalue = [0, 2, 0, 2]", fillcolor="#ffffff"] ;
717 -> 718 ;
719 [label="gini = 0.0\nsamples = 1\nvalue = [0, 1, 0, 0]", fillcolor="#47e539"] ;
718 -> 719 ;
720 [label="gini = 0.44\nsamples = 2\nvalue = [0, 1, 0, 2]", fillcolor="#eb9cf2"] ;
718 -> 720 ;
721 [label="X[4] <= 0.5\ngini = 0.14\nsamples = 7\nvalue = [1, 0, 0, 12]", fillcolor="#da49e7"] ;
717 -> 721 ;
722 [label="gini = 0.0\nsamples = 3\nvalue = [0, 0, 0, 7]", fillcolor="#d739e5"] ;
721 -> 722 ;
723 [label="X[3] <= 8.0\ngini = 0.28\nsamples = 4\nvalue = [1, 0, 0, 5]", fillcolor="#df61ea"] ;
721 -> 723 ;
724 [label="gini = 0.0\nsamples = 1\nvalue = [0, 0, 0, 2]", fillcolor="#d739e5"] ;
723 -> 724 ;
725 [label="gini = 0.38\nsamples = 3\nvalue = [1, 0, 0, 3]", fillcolor="#e47bee"] ;
723 -> 725 ;
726 [label="X[3] <= 6.5\ngini = 0.5\nsamples = 3\nvalue = [0, 0, 2, 2]", fillcolor="#ffffff"] ;
710 -> 726 ;
727 [label="X[0] <= 2.0\ngini = 0.44\nsamples = 2\nvalue = [0, 0, 2, 1]", fillcolor="#9ccef2"] ;
726 -> 727 ;
728 [label="gini = 0.0\nsamples = 1\nvalue = [0, 0, 2, 0]", fillcolor="#399de5"] ;
727 -> 728 ;
729 [label="gini = 0.0\nsamples = 1\nvalue = [0, 0, 0, 1]", fillcolor="#d739e5"] ;
727 -> 729 ;
730 [label="gini = 0.0\nsamples = 1\nvalue = [0, 0, 0, 1]", fillcolor="#d739e5"] ;
726 -> 730 ;
731 [label="X[0] <= 1.5\ngini = 0.44\nsamples = 2\nvalue = [0, 2, 0, 1]", fillcolor="#a3f29c"] ;
709 -> 731 ;
732 [label="gini = 0.0\nsamples = 1\nvalue = [0, 2, 0, 0]", fillcolor="#47e539"] ;
731 -> 732 ;
733 [label="gini = 0.0\nsamples = 1\nvalue = [0, 0, 0, 1]", fillcolor="#d739e5"] ;
731 -> 733 ;
734 [label="X[3] <= 6.0\ngini = 0.47\nsamples = 6\nvalue = [0, 3, 0, 5]", fillcolor="#efb0f5"] ;
708 -> 734 ;
735 [label="gini = 0.0\nsamples = 2\nvalue = [0, 0, 0, 3]", fillcolor="#d739e5"] ;
734 -> 735 ;
736 [label="X[4] <= 1.5\ngini = 0.48\nsamples = 4\nvalue = [0, 3, 0, 2]", fillcolor="#c2f6bd"] ;
734 -> 736 ;
737 [label="gini = 0.0\nsamples = 2\nvalue = [0, 3, 0, 0]", fillcolor="#47e539"] ;
736 -> 737 ;
738 [label="gini = 0.0\nsamples = 2\nvalue = [0, 0, 0, 2]", fillcolor="#d739e5"] ;
736 -> 738 ;
739 [label="X[6] <= 4.5\ngini = 0.52\nsamples = 13\nvalue = [12, 0, 5, 2]", fillcolor="#f2c09c"] ;
707 -> 739 ;
740 [label="X[0] <= 2.0\ngini = 0.32\nsamples = 7\nvalue = [8, 0, 2, 0]", fillcolor="#eca06a"] ;
739 -> 740 ;
741 [label="X[0] <= 0.5\ngini = 0.22\nsamples = 5\nvalue = [7, 0, 1, 0]", fillcolor="#e99355"] ;
740 -> 741 ;
742 [label="gini = 0.0\nsamples = 1\nvalue = [1, 0, 0, 0]", fillcolor="#e58139"] ;
741 -> 742 ;
743 [label="X[4] <= 1.5\ngini = 0.24\nsamples = 4\nvalue = [6, 0, 1, 0]", fillcolor="#e9965a"] ;
741 -> 743 ;
744 [label="gini = 0.5\nsamples = 2\nvalue = [1, 0, 1, 0]", fillcolor="#ffffff"] ;
743 -> 744 ;
745 [label="gini = 0.0\nsamples = 2\nvalue = [5, 0, 0, 0]", fillcolor="#e58139"] ;
743 -> 745 ;
746 [label="X[4] <= 1.5\ngini = 0.5\nsamples = 2\nvalue = [1, 0, 1, 0]", fillcolor="#ffffff"] ;
740 -> 746 ;
747 [label="gini = 0.0\nsamples = 1\nvalue = [1, 0, 0, 0]", fillcolor="#e58139"] ;
746 -> 747 ;
748 [label="gini = 0.0\nsamples = 1\nvalue = [0, 0, 1, 0]", fillcolor="#399de5"] ;
746 -> 748 ;
749 [label="X[0] <= 2.0\ngini = 0.64\nsamples = 6\nvalue = [4, 0, 3, 2]", fillcolor="#fbeade"] ;
739 -> 749 ;
750 [label="gini = 0.0\nsamples = 2\nvalue = [3, 0, 0, 0]", fillcolor="#e58139"] ;
749 -> 750 ;
751 [label="X[4] <= 2.5\ngini = 0.61\nsamples = 4\nvalue = [1, 0, 3, 2]", fillcolor="#cee6f8"] ;
749 -> 751 ;
752 [label="X[4] <= 1.0\ngini = 0.48\nsamples = 3\nvalue = [0, 0, 3, 2]", fillcolor="#bddef6"] ;
751 -> 752 ;
753 [label="gini = 0.0\nsamples = 1\nvalue = [0, 0, 0, 1]", fillcolor="#d739e5"] ;
752 -> 753 ;
754 [label="gini = 0.38\nsamples = 2\nvalue = [0, 0, 3, 1]", fillcolor="#7bbeee"] ;
752 -> 754 ;
755 [label="gini = 0.0\nsamples = 1\nvalue = [1, 0, 0, 0]", fillcolor="#e58139"] ;
751 -> 755 ;
756 [label="X[6] <= 6.5\ngini = 0.51\nsamples = 166\nvalue = [14, 57, 17, 173]", fillcolor="#e88ef0"] ;
706 -> 756 ;
757 [label="X[4] <= 2.5\ngini = 0.53\nsamples = 77\nvalue = [11, 18, 12, 77]", fillcolor="#e78af0"] ;
756 -> 757 ;
758 [label="X[0] <= 2.0\ngini = 0.5\nsamples = 67\nvalue = [11, 10, 11, 69]", fillcolor="#e57fee"] ;
757 -> 758 ;
759 [label="X[0] <= 0.5\ngini = 0.75\nsamples = 32\nvalue = [11, 10, 11, 14]", fillcolor="#fceefd"] ;
758 -> 759 ;
760 [label="X[3] <= 11.0\ngini = 0.52\nsamples = 20\nvalue = [1, 10, 0, 14]", fillcolor="#f4caf8"] ;
759 -> 760 ;
761 [label="X[3] <= 9.5\ngini = 0.48\nsamples = 18\nvalue = [0, 9, 0, 14]", fillcolor="#f1b8f6"] ;
760 -> 761 ;
762 [label="X[3] <= 2.0\ngini = 0.5\nsamples = 16\nvalue = [0, 9, 0, 9]", fillcolor="#ffffff"] ;
761 -> 762 ;
763 [label="gini = 0.0\nsamples = 1\nvalue = [0, 0, 0, 1]", fillcolor="#d739e5"] ;
762 -> 763 ;
764 [label="X[4] <= 1.5\ngini = 0.5\nsamples = 15\nvalue = [0, 9, 0, 8]", fillcolor="#ebfce9"] ;
762 -> 764 ;
765 [label="X[4] <= 0.5\ngini = 0.44\nsamples = 9\nvalue = [0, 6, 0, 3]", fillcolor="#a3f29c"] ;
764 -> 765 ;
766 [label="X[3] <= 5.5\ngini = 0.5\nsamples = 6\nvalue = [0, 3, 0, 3]", fillcolor="#ffffff"] ;
765 -> 766 ;
767 [label="gini = 0.0\nsamples = 1\nvalue = [0, 0, 0, 1]", fillcolor="#d739e5"] ;
766 -> 767 ;
768 [label="X[3] <= 8.0\ngini = 0.48\nsamples = 5\nvalue = [0, 3, 0, 2]", fillcolor="#c2f6bd"] ;
766 -> 768 ;
769 [label="gini = 0.0\nsamples = 1\nvalue = [0, 1, 0, 0]", fillcolor="#47e539"] ;
768 -> 769 ;
770 [label="gini = 0.5\nsamples = 4\nvalue = [0, 2, 0, 2]", fillcolor="#ffffff"] ;
768 -> 770 ;
771 [label="gini = 0.0\nsamples = 3\nvalue = [0, 3, 0, 0]", fillcolor="#47e539"] ;
765 -> 771 ;
772 [label="X[3] <= 6.0\ngini = 0.47\nsamples = 6\nvalue = [0, 3, 0, 5]", fillcolor="#efb0f5"] ;
764 -> 772 ;
773 [label="gini = 0.0\nsamples = 1\nvalue = [0, 1, 0, 0]", fillcolor="#47e539"] ;
772 -> 773 ;
774 [label="X[3] <= 8.5\ngini = 0.41\nsamples = 5\nvalue = [0, 2, 0, 5]", fillcolor="#e788ef"] ;
772 -> 774 ;
775 [label="gini = 0.0\nsamples = 1\nvalue = [0, 0, 0, 1]", fillcolor="#d739e5"] ;
774 -> 775 ;
776 [label="gini = 0.44\nsamples = 4\nvalue = [0, 2, 0, 4]", fillcolor="#eb9cf2"] ;
774 -> 776 ;
777 [label="gini = 0.0\nsamples = 2\nvalue = [0, 0, 0, 5]", fillcolor="#d739e5"] ;
761 -> 777 ;
778 [label="X[4] <= 1.5\ngini = 0.5\nsamples = 2\nvalue = [1, 1, 0, 0]", fillcolor="#ffffff"] ;
760 -> 778 ;
779 [label="gini = 0.0\nsamples = 1\nvalue = [1, 0, 0, 0]", fillcolor="#e58139"] ;
778 -> 779 ;
780 [label="gini = 0.0\nsamples = 1\nvalue = [0, 1, 0, 0]", fillcolor="#47e539"] ;
778 -> 780 ;
781 [label="X[3] <= 3.5\ngini = 0.5\nsamples = 12\nvalue = [10, 0, 11, 0]", fillcolor="#edf6fd"] ;
759 -> 781 ;
782 [label="gini = 0.0\nsamples = 2\nvalue = [0, 0, 4, 0]", fillcolor="#399de5"] ;
781 -> 782 ;
783 [label="X[4] <= 1.5\ngini = 0.48\nsamples = 10\nvalue = [10, 0, 7, 0]", fillcolor="#f7d9c4"] ;
781 -> 783 ;
784 [label="X[3] <= 4.5\ngini = 0.42\nsamples = 6\nvalue = [7, 0, 3, 0]", fillcolor="#f0b78e"] ;
783 -> 784 ;
785 [label="gini = 0.0\nsamples = 1\nvalue = [4, 0, 0, 0]", fillcolor="#e58139"] ;
784 -> 785 ;
786 [label="X[3] <= 8.0\ngini = 0.5\nsamples = 5\nvalue = [3, 0, 3, 0]", fillcolor="#ffffff"] ;
784 -> 786 ;
787 [label="gini = 0.0\nsamples = 2\nvalue = [0, 0, 2, 0]", fillcolor="#399de5"] ;
786 -> 787 ;
788 [label="X[3] <= 10.5\ngini = 0.38\nsamples = 3\nvalue = [3, 0, 1, 0]", fillcolor="#eeab7b"] ;
786 -> 788 ;
789 [label="gini = 0.0\nsamples = 1\nvalue = [1, 0, 0, 0]", fillcolor="#e58139"] ;
788 -> 789 ;
790 [label="gini = 0.44\nsamples = 2\nvalue = [2, 0, 1, 0]", fillcolor="#f2c09c"] ;
788 -> 790 ;
791 [label="X[3] <= 8.0\ngini = 0.49\nsamples = 4\nvalue = [3, 0, 4, 0]", fillcolor="#cee6f8"] ;
783 -> 791 ;
792 [label="gini = 0.44\nsamples = 2\nvalue = [1, 0, 2, 0]", fillcolor="#9ccef2"] ;
791 -> 792 ;
793 [label="gini = 0.5\nsamples = 2\nvalue = [2, 0, 2, 0]", fillcolor="#ffffff"] ;
791 -> 793 ;
794 [label="gini = 0.0\nsamples = 35\nvalue = [0, 0, 0, 55]", fillcolor="#d739e5"] ;
758 -> 794 ;
795 [label="X[0] <= 2.0\ngini = 0.55\nsamples = 10\nvalue = [0, 8, 1, 8]", fillcolor="#ffffff"] ;
757 -> 795 ;
796 [label="X[3] <= 5.0\ngini = 0.34\nsamples = 6\nvalue = [0, 8, 1, 1]", fillcolor="#70eb65"] ;
795 -> 796 ;
797 [label="gini = 0.0\nsamples = 1\nvalue = [0, 0, 1, 0]", fillcolor="#399de5"] ;
796 -> 797 ;
798 [label="X[4] <= 3.5\ngini = 0.2\nsamples = 5\nvalue = [0, 8, 0, 1]", fillcolor="#5ee852"] ;
796 -> 798 ;
799 [label="X[3] <= 10.0\ngini = 0.24\nsamples = 4\nvalue = [0, 6, 0, 1]", fillcolor="#66e95a"] ;
798 -> 799 ;
800 [label="gini = 0.5\nsamples = 2\nvalue = [0, 1, 0, 1]", fillcolor="#ffffff"] ;
799 -> 800 ;
801 [label="gini = 0.0\nsamples = 2\nvalue = [0, 5, 0, 0]", fillcolor="#47e539"] ;
799 -> 801 ;
802 [label="gini = 0.0\nsamples = 1\nvalue = [0, 2, 0, 0]", fillcolor="#47e539"] ;
798 -> 802 ;
803 [label="gini = 0.0\nsamples = 4\nvalue = [0, 0, 0, 7]", fillcolor="#d739e5"] ;
795 -> 803 ;
804 [label="X[0] <= 2.0\ngini = 0.47\nsamples = 89\nvalue = [3, 39, 5, 96]", fillcolor="#e992f1"] ;
756 -> 804 ;
805 [label="X[4] <= 2.5\ngini = 0.57\nsamples = 28\nvalue = [3, 25, 4, 10]", fillcolor="#a9f3a2"] ;
804 -> 805 ;
806 [label="X[0] <= 0.5\ngini = 0.51\nsamples = 24\nvalue = [3, 24, 3, 6]", fillcolor="#91ef88"] ;
805 -> 806 ;
807 [label="X[4] <= 1.5\ngini = 0.36\nsamples = 21\nvalue = [0, 24, 1, 6]", fillcolor="#7bec70"] ;
806 -> 807 ;
808 [label="X[3] <= 9.5\ngini = 0.57\nsamples = 6\nvalue = [0, 4, 1, 2]", fillcolor="#b5f5b0"] ;
807 -> 808 ;
809 [label="X[3] <= 3.5\ngini = 0.44\nsamples = 3\nvalue = [0, 1, 0, 2]", fillcolor="#eb9cf2"] ;
808 -> 809 ;
810 [label="gini = 0.0\nsamples = 1\nvalue = [0, 0, 0, 1]", fillcolor="#d739e5"] ;
809 -> 810 ;
811 [label="X[1] <= 2.5\ngini = 0.5\nsamples = 2\nvalue = [0, 1, 0, 1]", fillcolor="#ffffff"] ;
809 -> 811 ;
812 [label="gini = 0.0\nsamples = 1\nvalue = [0, 0, 0, 1]", fillcolor="#d739e5"] ;
811 -> 812 ;
813 [label="gini = 0.0\nsamples = 1\nvalue = [0, 1, 0, 0]", fillcolor="#47e539"] ;
811 -> 813 ;
814 [label="gini = 0.38\nsamples = 3\nvalue = [0, 3, 1, 0]", fillcolor="#84ee7b"] ;
808 -> 814 ;
815 [label="X[3] <= 4.0\ngini = 0.28\nsamples = 15\nvalue = [0, 20, 0, 4]", fillcolor="#6cea61"] ;
807 -> 815 ;
816 [label="gini = 0.0\nsamples = 1\nvalue = [0, 0, 0, 3]", fillcolor="#d739e5"] ;
815 -> 816 ;
817 [label="X[3] <= 9.5\ngini = 0.09\nsamples = 14\nvalue = [0, 20, 0, 1]", fillcolor="#50e643"] ;
815 -> 817 ;
818 [label="X[3] <= 7.0\ngini = 0.14\nsamples = 8\nvalue = [0, 12, 0, 1]", fillcolor="#56e749"] ;
817 -> 818 ;
819 [label="gini = 0.0\nsamples = 2\nvalue = [0, 5, 0, 0]", fillcolor="#47e539"] ;
818 -> 819 ;
820 [label="gini = 0.22\nsamples = 6\nvalue = [0, 7, 0, 1]", fillcolor="#61e955"] ;
818 -> 820 ;
821 [label="gini = 0.0\nsamples = 6\nvalue = [0, 8, 0, 0]", fillcolor="#47e539"] ;
817 -> 821 ;
822 [label="X[3] <= 11.0\ngini = 0.48\nsamples = 3\nvalue = [3, 0, 2, 0]", fillcolor="#f6d5bd"] ;
806 -> 822 ;
823 [label="gini = 0.0\nsamples = 1\nvalue = [2, 0, 0, 0]", fillcolor="#e58139"] ;
822 -> 823 ;
824 [label="gini = 0.44\nsamples = 2\nvalue = [1, 0, 2, 0]", fillcolor="#9ccef2"] ;
822 -> 824 ;
825 [label="X[3] <= 10.5\ngini = 0.5\nsamples = 4\nvalue = [0, 1, 1, 4]", fillcolor="#e788ef"] ;
805 -> 825 ;
826 [label="gini = 0.0\nsamples = 1\nvalue = [0, 0, 0, 3]", fillcolor="#d739e5"] ;
825 -> 826 ;
827 [label="X[0] <= 0.5\ngini = 0.67\nsamples = 3\nvalue = [0, 1, 1, 1]", fillcolor="#ffffff"] ;
825 -> 827 ;
828 [label="X[1] <= 1.5\ngini = 0.5\nsamples = 2\nvalue = [0, 1, 0, 1]", fillcolor="#ffffff"] ;
827 -> 828 ;
829 [label="gini = 0.0\nsamples = 1\nvalue = [0, 0, 0, 1]", fillcolor="#d739e5"] ;
828 -> 829 ;
830 [label="gini = 0.0\nsamples = 1\nvalue = [0, 1, 0, 0]", fillcolor="#47e539"] ;
828 -> 830 ;
831 [label="gini = 0.0\nsamples = 1\nvalue = [0, 0, 1, 0]", fillcolor="#399de5"] ;
827 -> 831 ;
832 [label="X[3] <= 5.5\ngini = 0.26\nsamples = 61\nvalue = [0, 14, 1, 86]", fillcolor="#de5be9"] ;
804 -> 832 ;
833 [label="X[3] <= 2.0\ngini = 0.5\nsamples = 8\nvalue = [0, 7, 0, 7]", fillcolor="#ffffff"] ;
832 -> 833 ;
834 [label="gini = 0.0\nsamples = 1\nvalue = [0, 0, 0, 1]", fillcolor="#d739e5"] ;
833 -> 834 ;
835 [label="X[4] <= 1.0\ngini = 0.5\nsamples = 7\nvalue = [0, 7, 0, 6]", fillcolor="#e5fbe3"] ;
833 -> 835 ;
836 [label="X[3] <= 3.5\ngini = 0.48\nsamples = 2\nvalue = [0, 3, 0, 2]", fillcolor="#c2f6bd"] ;
835 -> 836 ;
837 [label="gini = 0.0\nsamples = 1\nvalue = [0, 3, 0, 0]", fillcolor="#47e539"] ;
836 -> 837 ;
838 [label="gini = 0.0\nsamples = 1\nvalue = [0, 0, 0, 2]", fillcolor="#d739e5"] ;
836 -> 838 ;
839 [label="X[3] <= 4.0\ngini = 0.5\nsamples = 5\nvalue = [0, 4, 0, 4]", fillcolor="#ffffff"] ;
835 -> 839 ;
840 [label="gini = 0.49\nsamples = 4\nvalue = [0, 3, 0, 4]", fillcolor="#f5cef8"] ;
839 -> 840 ;
841 [label="gini = 0.0\nsamples = 1\nvalue = [0, 1, 0, 0]", fillcolor="#47e539"] ;
839 -> 841 ;
842 [label="X[4] <= 0.5\ngini = 0.17\nsamples = 53\nvalue = [0, 7, 1, 79]", fillcolor="#db4de8"] ;
832 -> 842 ;
843 [label="X[6] <= 7.5\ngini = 0.1\nsamples = 22\nvalue = [0, 2, 0, 34]", fillcolor="#d945e7"] ;
842 -> 843 ;
844 [label="X[3] <= 11.0\ngini = 0.07\nsamples = 17\nvalue = [0, 1, 0, 25]", fillcolor="#d941e6"] ;
843 -> 844 ;
845 [label="gini = 0.0\nsamples = 15\nvalue = [0, 0, 0, 24]", fillcolor="#d739e5"] ;
844 -> 845 ;
846 [label="gini = 0.5\nsamples = 2\nvalue = [0, 1, 0, 1]", fillcolor="#ffffff"] ;
844 -> 846 ;
847 [label="X[1] <= 1.5\ngini = 0.18\nsamples = 5\nvalue = [0, 1, 0, 9]", fillcolor="#db4fe8"] ;
843 -> 847 ;
848 [label="gini = 0.0\nsamples = 3\nvalue = [0, 0, 0, 7]", fillcolor="#d739e5"] ;
847 -> 848 ;
849 [label="X[3] <= 8.0\ngini = 0.44\nsamples = 2\nvalue = [0, 1, 0, 2]", fillcolor="#eb9cf2"] ;
847 -> 849 ;
850 [label="gini = 0.0\nsamples = 1\nvalue = [0, 1, 0, 0]", fillcolor="#47e539"] ;
849 -> 850 ;
851 [label="gini = 0.0\nsamples = 1\nvalue = [0, 0, 0, 2]", fillcolor="#d739e5"] ;
849 -> 851 ;
852 [label="X[1] <= 2.5\ngini = 0.21\nsamples = 31\nvalue = [0, 5, 1, 45]", fillcolor="#dc53e8"] ;
842 -> 852 ;
853 [label="X[4] <= 2.5\ngini = 0.4\nsamples = 6\nvalue = [0, 2, 1, 9]", fillcolor="#e374ed"] ;
852 -> 853 ;
854 [label="X[1] <= 1.5\ngini = 0.53\nsamples = 4\nvalue = [0, 2, 1, 5]", fillcolor="#eb9cf2"] ;
853 -> 854 ;
855 [label="gini = 0.0\nsamples = 1\nvalue = [0, 0, 1, 0]", fillcolor="#399de5"] ;
854 -> 855 ;
856 [label="gini = 0.41\nsamples = 3\nvalue = [0, 2, 0, 5]", fillcolor="#e788ef"] ;
854 -> 856 ;
857 [label="gini = 0.0\nsamples = 2\nvalue = [0, 0, 0, 4]", fillcolor="#d739e5"] ;
853 -> 857 ;
858 [label="X[4] <= 1.5\ngini = 0.14\nsamples = 25\nvalue = [0, 3, 0, 36]", fillcolor="#da49e7"] ;
852 -> 858 ;
859 [label="X[3] <= 11.0\ngini = 0.48\nsamples = 3\nvalue = [0, 2, 0, 3]", fillcolor="#f2bdf6"] ;
858 -> 859 ;
860 [label="gini = 0.0\nsamples = 1\nvalue = [0, 0, 0, 2]", fillcolor="#d739e5"] ;
859 -> 860 ;
861 [label="gini = 0.44\nsamples = 2\nvalue = [0, 2, 0, 1]", fillcolor="#a3f29c"] ;
859 -> 861 ;
862 [label="X[3] <= 11.0\ngini = 0.06\nsamples = 22\nvalue = [0, 1, 0, 33]", fillcolor="#d83fe6"] ;
858 -> 862 ;
863 [label="gini = 0.0\nsamples = 14\nvalue = [0, 0, 0, 17]", fillcolor="#d739e5"] ;
862 -> 863 ;
864 [label="gini = 0.11\nsamples = 8\nvalue = [0, 1, 0, 16]", fillcolor="#da45e7"] ;
862 -> 864 ;
865 [label="X[0] <= 1.5\ngini = 0.24\nsamples = 533\nvalue = [0, 111, 3, 692]", fillcolor="#de59e9"] ;
299 -> 865 ;
866 [label="X[6] <= 1.0\ngini = 0.46\nsamples = 133\nvalue = [0, 67, 1, 129]", fillcolor="#eca1f3"] ;
865 -> 866 ;
867 [label="X[0] <= -0.5\ngini = 0.3\nsamples = 14\nvalue = [0, 4, 0, 18]", fillcolor="#e065eb"] ;
866 -> 867 ;
868 [label="gini = 0.0\nsamples = 1\nvalue = [0, 0, 0, 2]", fillcolor="#d739e5"] ;
867 -> 868 ;
869 [label="X[1] <= 1.0\ngini = 0.32\nsamples = 13\nvalue = [0, 4, 0, 16]", fillcolor="#e16aec"] ;
867 -> 869 ;
870 [label="X[3] <= 8.0\ngini = 0.38\nsamples = 10\nvalue = [0, 4, 0, 12]", fillcolor="#e47bee"] ;
869 -> 870 ;
871 [label="gini = 0.0\nsamples = 1\nvalue = [0, 0, 0, 1]", fillcolor="#d739e5"] ;
870 -> 871 ;
872 [label="X[4] <= 1.0\ngini = 0.39\nsamples = 9\nvalue = [0, 4, 0, 11]", fillcolor="#e681ee"] ;
870 -> 872 ;
873 [label="gini = 0.0\nsamples = 7\nvalue = [0, 0, 0, 10]", fillcolor="#d739e5"] ;
872 -> 873 ;
874 [label="X[4] <= 3.0\ngini = 0.32\nsamples = 2\nvalue = [0, 4, 0, 1]", fillcolor="#75ec6a"] ;
872 -> 874 ;
875 [label="gini = 0.0\nsamples = 1\nvalue = [0, 4, 0, 0]", fillcolor="#47e539"] ;
874 -> 875 ;
876 [label="gini = 0.0\nsamples = 1\nvalue = [0, 0, 0, 1]", fillcolor="#d739e5"] ;
874 -> 876 ;
877 [label="gini = 0.0\nsamples = 3\nvalue = [0, 0, 0, 4]", fillcolor="#d739e5"] ;
869 -> 877 ;
878 [label="X[4] <= 2.5\ngini = 0.47\nsamples = 119\nvalue = [0, 63, 1, 111]", fillcolor="#eeaaf4"] ;
866 -> 878 ;
879 [label="X[6] <= 4.5\ngini = 0.48\nsamples = 106\nvalue = [0, 58, 1, 96]", fillcolor="#efb1f5"] ;
878 -> 879 ;
880 [label="X[3] <= 11.0\ngini = 0.48\nsamples = 103\nvalue = [0, 57, 1, 92]", fillcolor="#f0b4f5"] ;
879 -> 880 ;
881 [label="X[4] <= 1.5\ngini = 0.47\nsamples = 100\nvalue = [0, 53, 1, 92]", fillcolor="#eeacf4"] ;
880 -> 881 ;
882 [label="X[1] <= 1.5\ngini = 0.45\nsamples = 86\nvalue = [0, 42, 1, 84]", fillcolor="#eb9df2"] ;
881 -> 882 ;
883 [label="X[4] <= 0.5\ngini = 0.45\nsamples = 84\nvalue = [0, 41, 1, 83]", fillcolor="#eb9cf2"] ;
882 -> 883 ;
884 [label="X[4] <= -0.5\ngini = 0.46\nsamples = 81\nvalue = [0, 41, 1, 79]", fillcolor="#eca1f3"] ;
883 -> 884 ;
885 [label="X[0] <= 0.5\ngini = 0.45\nsamples = 44\nvalue = [0, 20, 1, 42]", fillcolor="#eb9af2"] ;
884 -> 885 ;
886 [label="gini = 0.44\nsamples = 43\nvalue = [0, 20, 0, 42]", fillcolor="#ea97f1"] ;
885 -> 886 ;
887 [label="gini = 0.0\nsamples = 1\nvalue = [0, 0, 1, 0]", fillcolor="#399de5"] ;
885 -> 887 ;
888 [label="X[3] <= 6.5\ngini = 0.46\nsamples = 37\nvalue = [0, 21, 0, 37]", fillcolor="#eea9f4"] ;
884 -> 888 ;
889 [label="gini = 0.0\nsamples = 1\nvalue = [0, 0, 0, 3]", fillcolor="#d739e5"] ;
888 -> 889 ;
890 [label="X[3] <= 9.5\ngini = 0.47\nsamples = 36\nvalue = [0, 21, 0, 34]", fillcolor="#f0b3f5"] ;
888 -> 890 ;
891 [label="X[3] <= 8.0\ngini = 0.48\nsamples = 35\nvalue = [0, 21, 0, 32]", fillcolor="#f1bbf6"] ;
890 -> 891 ;
892 [label="gini = 0.44\nsamples = 2\nvalue = [0, 1, 0, 2]", fillcolor="#eb9cf2"] ;
891 -> 892 ;
893 [label="gini = 0.48\nsamples = 33\nvalue = [0, 20, 0, 30]", fillcolor="#f2bdf6"] ;
891 -> 893 ;
894 [label="gini = 0.0\nsamples = 1\nvalue = [0, 0, 0, 2]", fillcolor="#d739e5"] ;
890 -> 894 ;
895 [label="gini = 0.0\nsamples = 3\nvalue = [0, 0, 0, 4]", fillcolor="#d739e5"] ;
883 -> 895 ;
896 [label="gini = 0.5\nsamples = 2\nvalue = [0, 1, 0, 1]", fillcolor="#ffffff"] ;
882 -> 896 ;
897 [label="X[1] <= 1.5\ngini = 0.49\nsamples = 14\nvalue = [0, 11, 0, 8]", fillcolor="#cdf8c9"] ;
881 -> 897 ;
898 [label="gini = 0.46\nsamples = 12\nvalue = [0, 11, 0, 6]", fillcolor="#abf3a5"] ;
897 -> 898 ;
899 [label="gini = 0.0\nsamples = 2\nvalue = [0, 0, 0, 2]", fillcolor="#d739e5"] ;
897 -> 899 ;
900 [label="gini = 0.0\nsamples = 3\nvalue = [0, 4, 0, 0]", fillcolor="#47e539"] ;
880 -> 900 ;
901 [label="X[3] <= 6.0\ngini = 0.32\nsamples = 3\nvalue = [0, 1, 0, 4]", fillcolor="#e16aec"] ;
879 -> 901 ;
902 [label="X[1] <= 1.5\ngini = 0.44\nsamples = 2\nvalue = [0, 1, 0, 2]", fillcolor="#eb9cf2"] ;
901 -> 902 ;
903 [label="gini = 0.0\nsamples = 1\nvalue = [0, 0, 0, 2]", fillcolor="#d739e5"] ;
902 -> 903 ;
904 [label="gini = 0.0\nsamples = 1\nvalue = [0, 1, 0, 0]", fillcolor="#47e539"] ;
902 -> 904 ;
905 [label="gini = 0.0\nsamples = 1\nvalue = [0, 0, 0, 2]", fillcolor="#d739e5"] ;
901 -> 905 ;
906 [label="X[6] <= 4.5\ngini = 0.38\nsamples = 13\nvalue = [0, 5, 0, 15]", fillcolor="#e47bee"] ;
878 -> 906 ;
907 [label="X[3] <= 7.5\ngini = 0.39\nsamples = 12\nvalue = [0, 5, 0, 14]", fillcolor="#e580ee"] ;
906 -> 907 ;
908 [label="gini = 0.0\nsamples = 1\nvalue = [0, 0, 0, 1]", fillcolor="#d739e5"] ;
907 -> 908 ;
909 [label="X[4] <= 3.5\ngini = 0.4\nsamples = 11\nvalue = [0, 5, 0, 13]", fillcolor="#e685ef"] ;
907 -> 909 ;
910 [label="gini = 0.41\nsamples = 8\nvalue = [0, 4, 0, 10]", fillcolor="#e788ef"] ;
909 -> 910 ;
911 [label="gini = 0.38\nsamples = 3\nvalue = [0, 1, 0, 3]", fillcolor="#e47bee"] ;
909 -> 911 ;
912 [label="gini = 0.0\nsamples = 1\nvalue = [0, 0, 0, 1]", fillcolor="#d739e5"] ;
906 -> 912 ;
913 [label="X[6] <= 7.5\ngini = 0.14\nsamples = 400\nvalue = [0, 44, 2, 563]", fillcolor="#da49e7"] ;
865 -> 913 ;
914 [label="X[3] <= 9.5\ngini = 0.13\nsamples = 399\nvalue = [0, 42, 2, 563]", fillcolor="#da48e7"] ;
913 -> 914 ;
915 [label="X[4] <= 0.5\ngini = 0.13\nsamples = 397\nvalue = [0, 40, 2, 561]", fillcolor="#da48e7"] ;
914 -> 915 ;
916 [label="X[4] <= -0.5\ngini = 0.1\nsamples = 270\nvalue = [0, 19, 2, 392]", fillcolor="#d944e6"] ;
915 -> 916 ;
917 [label="X[0] <= 2.5\ngini = 0.08\nsamples = 149\nvalue = [0, 7, 2, 217]", fillcolor="#d941e6"] ;
916 -> 917 ;
918 [label="gini = 0.0\nsamples = 9\nvalue = [0, 0, 0, 12]", fillcolor="#d739e5"] ;
917 -> 918 ;
919 [label="X[6] <= 1.0\ngini = 0.08\nsamples = 140\nvalue = [0, 7, 2, 205]", fillcolor="#d942e6"] ;
917 -> 919 ;
920 [label="gini = 0.0\nsamples = 10\nvalue = [0, 0, 0, 19]", fillcolor="#d739e5"] ;
919 -> 920 ;
921 [label="X[1] <= 2.5\ngini = 0.09\nsamples = 130\nvalue = [0, 7, 2, 186]", fillcolor="#d942e6"] ;
919 -> 921 ;
922 [label="X[1] <= 1.0\ngini = 0.08\nsamples = 118\nvalue = [0, 5, 2, 168]", fillcolor="#d941e6"] ;
921 -> 922 ;
923 [label="X[0] <= 3.5\ngini = 0.08\nsamples = 117\nvalue = [0, 5, 2, 167]", fillcolor="#d941e6"] ;
922 -> 923 ;
924 [label="X[6] <= 4.5\ngini = 0.08\nsamples = 115\nvalue = [0, 5, 2, 163]", fillcolor="#d941e6"] ;
923 -> 924 ;
925 [label="X[3] <= 8.0\ngini = 0.08\nsamples = 114\nvalue = [0, 5, 2, 162]", fillcolor="#d941e6"] ;
924 -> 925 ;
926 [label="gini = 0.0\nsamples = 7\nvalue = [0, 0, 0, 10]", fillcolor="#d739e5"] ;
925 -> 926 ;
927 [label="gini = 0.08\nsamples = 107\nvalue = [0, 5, 2, 152]", fillcolor="#d942e6"] ;
925 -> 927 ;
928 [label="gini = 0.0\nsamples = 1\nvalue = [0, 0, 0, 1]", fillcolor="#d739e5"] ;
924 -> 928 ;
929 [label="gini = 0.0\nsamples = 2\nvalue = [0, 0, 0, 4]", fillcolor="#d739e5"] ;
923 -> 929 ;
930 [label="gini = 0.0\nsamples = 1\nvalue = [0, 0, 0, 1]", fillcolor="#d739e5"] ;
922 -> 930 ;
931 [label="X[6] <= 4.0\ngini = 0.18\nsamples = 12\nvalue = [0, 2, 0, 18]", fillcolor="#db4fe8"] ;
921 -> 931 ;
932 [label="X[1] <= 3.5\ngini = 0.21\nsamples = 10\nvalue = [0, 2, 0, 15]", fillcolor="#dc53e8"] ;
931 -> 932 ;
933 [label="X[3] <= 8.0\ngini = 0.22\nsamples = 9\nvalue = [0, 2, 0, 14]", fillcolor="#dd55e9"] ;
932 -> 933 ;
934 [label="gini = 0.0\nsamples = 1\nvalue = [0, 0, 0, 1]", fillcolor="#d739e5"] ;
933 -> 934 ;
935 [label="gini = 0.23\nsamples = 8\nvalue = [0, 2, 0, 13]", fillcolor="#dd57e9"] ;
933 -> 935 ;
936 [label="gini = 0.0\nsamples = 1\nvalue = [0, 0, 0, 1]", fillcolor="#d739e5"] ;
932 -> 936 ;
937 [label="gini = 0.0\nsamples = 2\nvalue = [0, 0, 0, 3]", fillcolor="#d739e5"] ;
931 -> 937 ;
938 [label="X[6] <= 4.0\ngini = 0.12\nsamples = 121\nvalue = [0, 12, 0, 175]", fillcolor="#da47e7"] ;
916 -> 938 ;
939 [label="X[3] <= 8.0\ngini = 0.12\nsamples = 117\nvalue = [0, 12, 0, 170]", fillcolor="#da47e7"] ;
938 -> 939 ;
940 [label="gini = 0.0\nsamples = 6\nvalue = [0, 0, 0, 12]", fillcolor="#d739e5"] ;
939 -> 940 ;
941 [label="X[1] <= 1.5\ngini = 0.13\nsamples = 111\nvalue = [0, 12, 0, 158]", fillcolor="#da48e7"] ;
939 -> 941 ;
942 [label="gini = 0.14\nsamples = 105\nvalue = [0, 12, 0, 151]", fillcolor="#da49e7"] ;
941 -> 942 ;
943 [label="gini = 0.0\nsamples = 6\nvalue = [0, 0, 0, 7]", fillcolor="#d739e5"] ;
941 -> 943 ;
944 [label="gini = 0.0\nsamples = 4\nvalue = [0, 0, 0, 5]", fillcolor="#d739e5"] ;
938 -> 944 ;
945 [label="X[6] <= 4.5\ngini = 0.2\nsamples = 127\nvalue = [0, 21, 0, 169]", fillcolor="#dc52e8"] ;
915 -> 945 ;
946 [label="X[3] <= 5.5\ngini = 0.2\nsamples = 125\nvalue = [0, 21, 0, 166]", fillcolor="#dc52e8"] ;
945 -> 946 ;
947 [label="gini = 0.0\nsamples = 4\nvalue = [0, 0, 0, 7]", fillcolor="#d739e5"] ;
946 -> 947 ;
948 [label="X[3] <= 6.5\ngini = 0.21\nsamples = 121\nvalue = [0, 21, 0, 159]", fillcolor="#dc53e8"] ;
946 -> 948 ;
949 [label="X[4] <= 2.5\ngini = 0.42\nsamples = 6\nvalue = [0, 3, 0, 7]", fillcolor="#e88ef0"] ;
948 -> 949 ;
950 [label="gini = 0.0\nsamples = 3\nvalue = [0, 0, 0, 6]", fillcolor="#d739e5"] ;
949 -> 950 ;
951 [label="X[4] <= 3.5\ngini = 0.38\nsamples = 3\nvalue = [0, 3, 0, 1]", fillcolor="#84ee7b"] ;
949 -> 951 ;
952 [label="gini = 0.44\nsamples = 2\nvalue = [0, 2, 0, 1]", fillcolor="#a3f29c"] ;
951 -> 952 ;
953 [label="gini = 0.0\nsamples = 1\nvalue = [0, 1, 0, 0]", fillcolor="#47e539"] ;
951 -> 953 ;
954 [label="X[4] <= 2.5\ngini = 0.19\nsamples = 115\nvalue = [0, 18, 0, 152]", fillcolor="#dc50e8"] ;
948 -> 954 ;
955 [label="X[1] <= 1.0\ngini = 0.23\nsamples = 78\nvalue = [0, 15, 0, 100]", fillcolor="#dd57e9"] ;
954 -> 955 ;
956 [label="X[4] <= 1.5\ngini = 0.24\nsamples = 72\nvalue = [0, 15, 0, 93]", fillcolor="#dd59e9"] ;
955 -> 956 ;
957 [label="gini = 0.33\nsamples = 17\nvalue = [0, 4, 0, 15]", fillcolor="#e26eec"] ;
956 -> 957 ;
